{"config":{"head":null,"layers":[{"gated":false,"channels":16,"dilations":[1,2,4,8,16,32,64,128,256,512],"head_bias":false,"head_size":8,"activation":"Tanh","input_size":1,"kernel_size":3,"condition_size":1},{"gated":false,"channels":8,"dilations":[1,2,4,8,16,32,64,128,256,512],"head_bias":true,"head_size":1,"activation":"Tanh","input_size":16,"kernel_size":3,"condition_size":1}],"head_scale":0.02},"version":"0.5.4","weights":[-0.0017484980635344982,0.40401458740234375,-0.9158207178115845,-0.8236914277076721,-0.39303603768348694,0.4177170693874359,-0.09355281293392181,0.881533682346344,-0.19598378241062164,0.2301550805568695,-0.45695924758911133,-0.05601979419589043,-0.9940221309661865,-0.7527222633361816,-0.5025410056114197,0.00022070208797231317,0.04618150740861893,0.10466387867927551,-0.14917398989200592,-0.09271083772182465,0.060961637645959854,0.0857589989900589,-0.002027930226176977,0.0927010327577591,0.010508935898542404,0.04274098575115204,0.115781769156456,-0.10039731860160828,-0.05898253619670868,-0.047646377235651016,-0.019388198852539062,0.09783914685249329,-0.07461655884981155,-0.10021915286779404,-0.06870095431804657,-0.14611773192882538,-0.03194968402385712,0.09595468640327454,0.07941118627786636,0.036128319799900055,0.03951643407344818,-0.08676549047231674,0.06731187552213669,-0.16426970064640045,-0.09676991403102875,-0.11143548786640167,0.1192459687590599,0.06931272894144058,-0.02750997617840767,0.03300180658698082,0.09366386383771896,0.18333609402179718,0.0844305232167244,0.0052206492982804775,0.1303737759590149,-0.05703923851251602,0.012396663427352905,-0.0778903141617775,-0.0706251859664917,-0.08820538967847824,0.10156644880771637,-0.00597477238625288,-0.13854674994945526,-0.008185732178390026,0.06227850168943405,-0.12090013921260834,0.02599465847015381,0.006677048280835152,-0.07763852179050446,0.14059558510780334,-0.08507995307445526,0.11922711879014969,0.06143419072031975,0.14565728604793549,0.2980230450630188,0.12979334592819214,0.05106072872877121,0.04183574393391609,0.011557383462786674,-0.10832785815000534,-0.30227023363113403,0.13108298182487488,0.10875178128480911,0.00542247062548995,-0.016623884439468384,-0.04959062114357948,-0.19542653858661652,-0.07008542120456696,0.06376596540212631,0.07400082051753998,0.03160947933793068,0.05250784382224083,-0.05905058979988098,0.06868761777877808,-0.12385471910238266,0.07460632175207138,0.06826135516166687,0.047208379954099655,0.02986399084329605,-0.10388205945491791,0.16327321529388428,0.2703809142112732,-0.059965554624795914,-0.010492734611034393,0.03483976423740387,-0.000137388808070682,-0.08581961691379547,0.05859920009970665,-0.009190119802951813,-0.03311069682240486,-0.10271510481834412,0.06876511126756668,-0.13117501139640808,0.2073412984609604,0.07211870700120926,-0.154680535197258,0.0714082196354866,0.01379822101444006,0.055535148829221725,-0.07796750217676163,0.046845342963933945,0.0440451055765152,-0.18311308324337006,0.05981612205505371,-0.09892676770687103,-0.1937805563211441,-0.040219880640506744,-0.11620668321847916,0.056461114436388016,-0.11738766729831696,0.03361764922738075,-0.08075860887765884,-0.0485277958214283,-0.04328204318881035,0.21442089974880219,-0.005681669805198908,0.0603148378431797,-0.1177171841263771,0.04861583933234215,0.05063433200120926,0.24187719821929932,0.0811944380402565,0.17981314659118652,-0.12010864168405533,-0.12951244413852692,-0.028744840994477272,0.009948891587555408,0.005483877379447222,-0.038387782871723175,-0.2241024374961853,-0.14370255172252655,-0.08597944676876068,-0.14167961478233337,0.07161018252372742,0.11668329685926437,-0.2503358721733093,0.08583018183708191,-0.061974696815013885,-0.0028447690419852734,-0.0833190307021141,-0.05018187686800957,-0.08881612867116928,-0.1290719211101532,-0.12668663263320923,-0.09698958694934845,-0.04014258086681366,-0.06721612811088562,0.12836161255836487,-0.07814408838748932,-0.011297251097857952,0.20176151394844055,-0.009273814037442207,0.12381507456302643,0.12186159193515778,-0.08715846389532089,0.1021631509065628,-0.08357080817222595,-0.11220608651638031,0.0872633084654808,-0.05374612659215927,0.015396354719996452,-0.027380600571632385,0.03041166439652443,-0.01092851348221302,0.05111638084053993,0.11573616415262222,-0.006584829650819302,-0.026211658492684364,-0.19112713634967804,0.05145445466041565,0.10603312402963638,0.1688949316740036,-0.057104915380477905,-0.0016635144129395485,-0.04146961867809296,-0.06317541748285294,-0.0837806910276413,0.12558028101921082,-0.03644346445798874,-0.005591639783233404,0.08006448298692703,0.14166919887065887,-0.11397994309663773,-0.027018779888749123,-0.037615302950143814,0.1266326606273651,-0.038147833198308945,0.1930004209280014,-0.1606317162513733,0.02512490376830101,-0.011487806215882301,-0.13971494138240814,0.1648470014333725,0.057430293411016464,0.11421961337327957,-0.139842227101326,-0.20127667486667633,0.04466470703482628,-0.040041808038949966,-0.2084646224975586,0.11448825150728226,-0.007419955916702747,-0.037763532251119614,-0.13370098173618317,0.027325641363859177,0.15801818668842316,0.07698983699083328,-0.17844252288341522,-0.10671515017747879,-0.13895253837108612,0.15907524526119232,0.20824028551578522,0.17285703122615814,-0.01844613440334797,0.010288258083164692,-0.20966973900794983,0.21103744208812714,-0.02796914614737034,0.06589395552873611,-0.1156155988574028,-0.033896055072546005,0.21833869814872742,-0.16276602447032928,-0.07567628473043442,0.18946081399917603,-0.2972053289413452,0.015332917682826519,0.001040007104165852,-0.15431898832321167,-0.11442168802022934,0.048344895243644714,-0.13668672740459442,0.03099275939166546,0.07952184975147247,-0.02241278439760208,-0.05611091107130051,-0.19151292741298676,0.10041578114032745,-0.08862601220607758,-0.10659743845462799,-0.02942652814090252,0.14627549052238464,0.08491864055395126,0.05311330780386925,-0.015233752317726612,-0.037759050726890564,-0.0978069081902504,-0.024250967428088188,0.13428297638893127,-0.013916123658418655,-0.13042476773262024,-0.0877823457121849,-0.08698559552431107,0.09209152311086655,-0.03243100643157959,-0.17953303456306458,0.11377066373825073,-0.10351760685443878,0.039873093366622925,0.10879514366388321,0.03813311830163002,-0.14446094632148743,-0.15786124765872955,0.09621654450893402,0.07516591250896454,0.16584371030330658,-0.03208664804697037,-0.011165694333612919,-0.09221257269382477,0.017996903508901596,-0.12485174834728241,0.008749546483159065,0.05377673730254173,-0.06173703819513321,-0.09903179854154587,-0.07831715792417526,0.04254310205578804,-0.1735672503709793,0.07270479947328568,-0.10417374968528748,-0.13259625434875488,0.0714903250336647,-0.036921024322509766,0.0024690511636435986,-0.00890312995761633,-0.002884604735299945,0.015036169439554214,-0.029810436069965363,0.2064466029405594,-0.05711229145526886,-0.02436913549900055,-0.17867092788219452,0.08629734814167023,0.04165681451559067,-0.10190147906541824,0.13323046267032623,0.021888863295316696,-0.14943832159042358,0.1003677099943161,-0.09459643810987473,0.16323938965797424,-0.026831092312932014,-0.0003391260979697108,-0.13250011205673218,0.17786933481693268,0.03465091064572334,0.24060748517513275,-0.017324836924672127,0.17979007959365845,-0.21621590852737427,-0.05855453014373779,-0.22619101405143738,0.2859456241130829,0.032546792179346085,0.0022615347988903522,-0.09823429584503174,0.15427619218826294,0.23797135055065155,0.0040271468460559845,0.16470874845981598,0.059797897934913635,-0.20782962441444397,0.15630291402339935,0.17571181058883667,-0.24314014613628387,0.16773611307144165,0.1666136533021927,-0.0764433816075325,-0.049789752811193466,0.012339318171143532,-0.13014574348926544,-0.019391566514968872,-0.02916373871266842,0.13279074430465698,0.038752924650907516,0.11205095052719116,0.11083003878593445,0.12783461809158325,-0.1520376354455948,-0.13564233481884003,-0.15679466724395752,-0.19284328818321228,-0.2838539481163025,0.055456578731536865,0.03139347955584526,-0.027225853875279427,0.060597214847803116,-0.08468307554721832,0.06819172203540802,0.029765848070383072,-0.10026416182518005,-0.048759281635284424,-0.11548170447349548,-0.019728032872080803,0.028590748086571693,-0.023016398772597313,0.09004326909780502,-0.03968245908617973,0.06822503358125687,0.15148834884166718,0.2837408185005188,0.006524535361677408,0.019999094307422638,-0.03778567910194397,-0.002977204043418169,0.10486644506454468,-0.05972187593579292,0.04276321828365326,-0.10254427045583725,-0.09951184689998627,-0.04249325767159462,-0.08443792164325714,-0.2492133378982544,-0.13873890042304993,-0.1587027907371521,-0.06978302448987961,0.04732485115528107,-0.032977841794490814,-0.10949643701314926,0.0655626580119133,0.09051571041345596,0.04995027557015419,-0.04196948558092117,0.11708278954029083,0.15391522645950317,-0.037558652460575104,0.15729770064353943,0.01124344952404499,-0.12772534787654877,0.09996899217367172,-0.18049804866313934,-0.09748858958482742,0.14462657272815704,-0.08782386779785156,-0.1729375272989273,-0.07722924649715424,0.05200612172484398,0.04202596843242645,0.05148011073470116,0.04471298307180405,-0.019037306308746338,-0.10937392711639404,0.10468132793903351,0.14444072544574738,0.10737746208906174,-0.21946747601032257,-0.07669757306575775,-0.1305917203426361,0.030338624492287636,0.10555960237979889,-0.07575328648090363,-0.04150667041540146,0.05589769408106804,0.02900167927145958,-0.17267854511737823,-0.10567859560251236,0.04876367747783661,-0.20991535484790802,-0.0025975648313760757,-0.11170320957899094,-0.23708610236644745,-0.21422111988067627,-0.007372947409749031,0.0005890681641176343,-0.20759283006191254,0.16200092434883118,-0.022718410938978195,0.009246587753295898,0.006402656901627779,0.007380426861345768,0.12413468956947327,0.06688538938760757,0.32800906896591187,0.08775857090950012,-0.08454897999763489,-0.07411516457796097,-0.014176787808537483,0.07921809703111649,-0.31064677238464355,-0.06117010861635208,-0.1278538554906845,-0.24504485726356506,0.01551258284598589,-0.13257084786891937,0.23780378699302673,0.09214404970407486,0.049661554396152496,-0.2837778627872467,-0.07775082439184189,-0.05642327293753624,0.2572726309299469,0.16395172476768494,0.10855188965797424,-0.2058868706226349,0.057540468871593475,-0.15768949687480927,0.06288867443799973,0.06519157439470291,-0.06374485790729523,-0.12481939047574997,-0.11419472843408585,-0.05187654867768288,-0.2700270712375641,0.08084864914417267,-0.005287389270961285,-0.0842762142419815,0.06964367628097534,0.09073153138160706,-0.19036675989627838,-0.06397318840026855,-0.018327558413147926,-0.17483146488666534,0.05564350634813309,-0.030006052926182747,0.1720459908246994,-0.02565843239426613,0.022867923602461815,-0.1775844693183899,0.13617728650569916,0.2710614502429962,-0.36111944913864136,0.126971036195755,-0.06336674839258194,0.3281586468219757,0.09442797303199768,-0.2169308364391327,0.28727853298187256,0.03293982893228531,-0.1847658008337021,0.2826755940914154,-0.06785789132118225,0.23799286782741547,-0.27966153621673584,-0.020136088132858276,-0.133378803730011,0.2607979476451874,-0.12599772214889526,0.14988785982131958,-0.15929819643497467,0.012648697011172771,-0.11603302508592606,0.19187381863594055,0.005062629468739033,0.04204403609037399,-0.30084478855133057,-0.02663334086537361,-0.009701104834675789,0.20263412594795227,-0.03793453797698021,-0.21266305446624756,0.33020076155662537,0.11153881996870041,-0.24520248174667358,0.12490329146385193,-0.13725589215755463,-0.13938555121421814,0.2047882378101349,-0.12166226655244827,-0.1925567090511322,0.2674362361431122,-0.104969322681427,0.03473593667149544,0.03659890219569206,0.031191693618893623,0.13579897582530975,0.05337133631110191,-0.033418674021959305,0.04720630869269371,-0.2410685420036316,0.11740510165691376,-0.18050478398799896,0.05899735167622566,0.1647024303674698,-0.1372099369764328,0.2249545156955719,0.01065349206328392,-0.08140765875577927,0.1585615873336792,0.11163075268268585,0.06649760156869888,-0.3341333270072937,-0.0996941477060318,-0.14124096930027008,0.25514084100723267,-0.11953464150428772,0.18153998255729675,-0.22878703474998474,-0.04799157381057739,0.04011242464184761,0.2613546550273895,0.12165048718452454,0.1314014047384262,-0.22983670234680176,-0.10301770269870758,-0.0636780634522438,0.3163990378379822,-0.03549979627132416,-0.1801513284444809,0.21817097067832947,0.15646079182624817,-0.0836222767829895,0.07837509363889694,-0.10849364846944809,-0.010322886519134045,0.18565210700035095,-0.0514109842479229,-0.02024071291089058,0.2509293556213379,0.13373565673828125,0.057828132063150406,-0.028253627941012383,-0.08911482989788055,-0.08891099691390991,0.1498320996761322,0.034487660974264145,0.06578125059604645,-0.18964099884033203,0.008573820814490318,0.13001538813114166,0.19781871140003204,0.007717944215983152,-0.06126253306865692,-0.032449137419462204,0.2669564485549927,-0.072701096534729,-0.0038988974411040545,0.20147474110126495,-0.049778830260038376,-0.13009952008724213,-0.1404220163822174,-0.04450373351573944,-0.06675916910171509,0.20814374089241028,-0.05591395124793053,-0.015251204371452332,-0.004769084043800831,0.04861273989081383,0.07359237968921661,0.23356713354587555,0.027069315314292908,-0.1285964548587799,0.029643435031175613,0.020657898858189583,-0.07734131813049316,0.08132227510213852,-0.10768678784370422,0.1758958399295807,0.0753365010023117,-0.1362575888633728,0.05925975367426872,0.21934708952903748,0.03049609810113907,0.11236945539712906,0.14297501742839813,0.04398268833756447,0.029165461659431458,0.0689823254942894,-0.19490131735801697,-0.1613743156194687,0.08772380650043488,-0.08305195719003677,0.06205834075808525,-0.002982771722599864,0.02332713082432747,-0.10020627081394196,0.013807644136250019,-0.09881539642810822,0.1255083531141281,0.017156755551695824,-0.049975886940956116,0.08452024310827255,0.07242920249700546,0.1015407145023346,-0.0983712375164032,0.004955029580742121,-0.04119446501135826,0.027681918814778328,0.0023359833285212517,-0.11059197783470154,0.0363028421998024,0.049224965274333954,-0.015427679754793644,0.10089710354804993,-0.24427829682826996,-0.018387148156762123,0.12508630752563477,0.09063843637704849,0.1332351714372635,-0.04826495423913002,0.010614530183374882,-0.16192765533924103,-0.01955540105700493,0.09949904680252075,0.025186121463775635,0.04984385892748833,0.20726409554481506,-0.03507847338914871,0.0027829150203615427,0.22922152280807495,-0.05486973375082016,0.13229438662528992,0.03452178090810776,-0.03420595824718475,-0.004751527216285467,0.19244782626628876,0.06293598562479019,-0.08743500709533691,-0.07744960486888885,0.02710689790546894,-0.006411177571862936,0.178581103682518,-0.16210657358169556,0.055616408586502075,0.37320971488952637,0.08442571014165878,-0.10207049548625946,-0.143702894449234,-0.03298531845211983,0.06832404434680939,-0.22693569958209991,0.01112346351146698,0.09057793021202087,-0.3694574236869812,-0.04890437051653862,-0.13478897511959076,0.23342669010162354,0.1173403412103653,0.17852579057216644,-0.28856855630874634,0.0188051238656044,-0.053089868277311325,0.1779833436012268,-0.035046111792325974,-0.08344511687755585,-0.09513375908136368,-0.11711020022630692,-0.034618739038705826,0.25514963269233704,0.1770956814289093,0.1608418971300125,-0.12396905571222305,-0.024321964010596275,0.02795320749282837,-0.2758564352989197,-0.010164778679609299,0.06774258613586426,-0.1088625118136406,-0.04094793274998665,0.1232549324631691,-0.3207259476184845,0.04843081533908844,0.151986226439476,-0.2767221927642822,0.04008305072784424,-0.07134202867746353,0.07528893649578094,-0.022530801594257355,-0.1544138491153717,0.05774068832397461,-0.1506456434726715,-0.25233182311058044,-0.03875313699245453,0.16321510076522827,0.10166574269533157,0.11949384212493896,0.17236222326755524,0.2386748343706131,-0.02568677067756653,0.02757084369659424,0.09229973703622818,-0.07123315334320068,-0.03999848663806915,-0.02732054516673088,0.07811371237039566,0.03246450051665306,0.16330651938915253,-0.0758090540766716,0.06117540970444679,-0.20145167410373688,-0.1515718400478363,0.05183694511651993,0.21851524710655212,-0.11012370884418488,0.08969807624816895,-0.08317955583333969,-0.12857981026172638,0.010993901640176773,0.2645075023174286,-0.06972280889749527,-0.007106258068233728,0.16317397356033325,-0.09816092252731323,0.12905366718769073,0.21920226514339447,0.1393776684999466,-0.04426140710711479,0.2863062918186188,-0.036614324897527695,0.1896311193704605,0.00246162386611104,-0.08293219655752182,0.055789515376091,-0.018253864720463753,0.04938549920916557,-0.005742628127336502,-0.10660964995622635,-0.0533745214343071,-0.09611061215400696,0.050718873739242554,0.0557495653629303,-0.009115244261920452,0.016242649406194687,0.08523931354284286,0.12204084545373917,-0.055392902344465256,-0.057329509407281876,-0.09085938334465027,-0.039096951484680176,0.0021880397107452154,-0.022554714232683182,0.4137597680091858,-0.4372277855873108,0.8129082322120667,-0.7583279609680176,0.09504209458827972,0.9719697833061218,0.9635255932807922,-0.5151991248130798,0.25851184129714966,0.14546546339988708,-0.4460029602050781,-0.37345069646835327,0.13683754205703735,-0.832195520401001,0.41297227144241333,0.3749576210975647,-0.0003025438345503062,0.2687845826148987,-0.06551776826381683,0.18475787341594696,0.16516228020191193,-0.06209230795502663,0.05529286712408066,-0.2396457940340042,-0.09638117998838425,-0.13477283716201782,0.05727194622159004,-0.019250309094786644,0.19812382757663727,0.04663676768541336,0.06662672013044357,0.15737813711166382,-0.07464829832315445,0.04305491968989372,-0.36888277530670166,0.21575656533241272,-0.162606880068779,-0.2776593267917633,-0.28358668088912964,-0.028923802077770233,-0.17270253598690033,-0.008283359929919243,0.15920355916023254,0.2444615364074707,0.20214059948921204,0.12129106372594833,-0.12428729981184006,0.3454430401325226,0.006408074405044317,0.09532982856035233,-0.03998506814241409,0.2124543935060501,-0.1871037632226944,-0.23559726774692535,0.08123873919248581,-0.09592732787132263,-0.05316914618015289,-0.151347354054451,0.19173352420330048,-0.18141834437847137,0.16233035922050476,0.3380458652973175,0.01617245189845562,-0.02917342819273472,0.09819357097148895,-0.1886546015739441,-0.005335379391908646,-0.1598142683506012,-0.05242621898651123,0.0010708621703088284,0.025806760415434837,0.08487559854984283,-0.20538294315338135,0.10402291268110275,-0.053531523793935776,0.002798448083922267,0.15679076313972473,0.26792311668395996,-0.305546373128891,-0.12168744206428528,-0.17015895247459412,-0.2675607204437256,-0.2956926226615906,0.12761534750461578,0.17805616557598114,0.07540398836135864,0.057807546108961105,-0.1537661850452423,0.09504766017198563,0.28635016083717346,-0.32619062066078186,0.12912467122077942,-0.054481141269207,0.16887590289115906,-0.1835501790046692,0.09887313097715378,-0.13091373443603516,-0.10339663922786713,0.23393826186656952,0.00028191597084514797,0.41203394532203674,0.4215773642063141,0.35068532824516296,0.11537651717662811,0.27721527218818665,0.07503509521484375,-0.4035179913043976,-0.2771168649196625,-0.09701503068208694,-0.2849290668964386,0.26281702518463135,0.0020130241755396128,0.07862676680088043,0.30897408723831177,0.046403829008340836,0.36611998081207275,-0.5233262777328491,-0.39210045337677,-0.194906547665596,-0.1618085652589798,-0.15487787127494812,-0.5461795926094055,0.20093899965286255,0.5052621960639954,0.39586514234542847,0.016150495037436485,-0.03790384158492088,0.12164121121168137,0.2011132687330246,0.057977013289928436,0.29457464814186096,-0.2412784993648529,-0.13643495738506317,0.26322174072265625,0.24881960451602936,0.09599920362234116,0.1970909833908081,-0.1953747570514679,0.1552402377128601,-0.2640688121318817,0.010213267989456654,-0.2493375837802887,0.06657806038856506,0.014616533182561398,-0.10934649407863617,0.10507039725780487,-0.39886265993118286,-0.10942397266626358,-0.10028909146785736,-0.26312553882598877,-0.31840550899505615,-0.09238198399543762,-0.33701860904693604,-0.36060792207717896,0.3537615239620209,0.3052807152271271,0.11676129698753357,0.022592833265662193,-0.05354451388120651,0.15792161226272583,-0.1923765391111374,0.08478128910064697,0.15627838671207428,-0.1791083961725235,-0.32903850078582764,-0.08096662908792496,0.052224867045879364,-0.024309944361448288,-0.009808124043047428,0.15361960232257843,0.30783897638320923,0.1754848062992096,0.2327951043844223,0.23373477160930634,-0.15031050145626068,-0.04736408591270447,0.10401080548763275,0.3501396179199219,-0.4068875312805176,0.249707892537117,-0.2627246677875519,-0.40790536999702454,-0.12726852297782898,-0.17635577917099,-0.10307416319847107,-0.3059616982936859,-0.00914993416517973,0.1280641257762909,0.038987256586551666,0.3172459304332733,-0.17709772288799286,0.381598562002182,0.02795693278312683,-0.14799714088439941,0.2424314171075821,-0.06240861490368843,0.2221069633960724,0.018819371238350868,0.11175459623336792,-0.03871564939618111,0.05266191437840462,-0.07383577525615692,-0.17676207423210144,-0.3293455243110657,-0.10306870937347412,0.045673903077840805,-0.09769187122583389,-0.2571417987346649,-0.012803205288946629,-0.06940877437591553,0.2060670405626297,0.028254278004169464,0.26703569293022156,-0.18637767434120178,0.24763354659080505,0.13378198444843292,0.22504426538944244,0.043565087020397186,-0.4201072156429291,-0.08763543516397476,0.1672029048204422,-0.08625619858503342,-0.19479836523532867,0.003182207001373172,-0.07374633103609085,-0.09471146017313004,-0.2685973346233368,0.23449400067329407,-0.36873045563697815,-0.0790029913187027,0.02099674753844738,0.07382989674806595,-0.19317124783992767,-0.2402552217245102,0.28450027108192444,0.2821272611618042,-0.033193789422512054,0.1757233589887619,-0.39911091327667236,0.257154643535614,-0.1301209181547165,0.33125850558280945,-0.19381237030029297,-0.06435484439134598,-0.026406869292259216,-0.12168005853891373,0.04084659367799759,0.05187422037124634,-0.34592708945274353,0.03778282552957535,0.06290381401777267,0.01363928709179163,0.2298475205898285,0.328816294670105,-0.35825812816619873,0.08109434694051743,0.04014343023300171,0.12433207035064697,0.16116078197956085,-0.1314300149679184,-0.16334475576877594,0.10227932780981064,0.15657231211662292,0.3400745093822479,-0.09221207350492477,-0.13755904138088226,-0.24033986032009125,-0.2976062297821045,0.04356643557548523,0.21367672085762024,-0.09368901699781418,-0.1773758977651596,0.08821576088666916,-0.15578587353229523,0.1912604719400406,-0.17711767554283142,-0.08901610225439072,-0.05612082779407501,0.09688407182693481,0.011644136160612106,0.06479381769895554,-0.1840597689151764,0.04399290680885315,-0.00635075569152832,-0.014871145598590374,0.13668429851531982,0.10206189751625061,0.007878592237830162,0.044367700815200806,-0.061545953154563904,0.030347377061843872,0.056847792118787766,-0.08608212321996689,0.07566390931606293,-0.004640853963792324,-0.05653458088636398,0.09059581160545349,-0.0794455036520958,0.006478935480117798,0.04660101979970932,0.11867944896221161,-0.09100399166345596,0.09006983041763306,0.13389533758163452,-0.041569922119379044,0.014138584956526756,-0.09298964589834213,-0.11219366639852524,0.14309047162532806,-0.06818228960037231,-0.04555494710803032,-0.28335651755332947,-0.08474227041006088,0.012172906659543514,-0.0797298327088356,-0.12751910090446472,0.07081606239080429,-0.06559766829013824,-0.03664533793926239,-0.039610039442777634,0.08960860222578049,-0.09564123302698135,-0.06022045016288757,-0.031391456723213196,0.20932714641094208,-0.06315846741199493,0.011434409767389297,-0.1217651218175888,0.023893823847174644,-0.06442166119813919,-0.046588242053985596,0.06821790337562561,0.1165493056178093,0.199796661734581,-0.09847443550825119,-0.16596542298793793,0.21332450211048126,-0.11074948310852051,0.19872498512268066,0.06682725995779037,-0.055744901299476624,0.19580188393592834,-0.0032538361847400665,-0.166117861866951,0.0583343543112278,-0.07725590467453003,0.1093418151140213,-0.06935513764619827,-0.015519623644649982,-0.0019021083135157824,0.03012346290051937,-0.25982534885406494,-0.025446929037570953,-0.05855739489197731,0.32497674226760864,-0.21859091520309448,0.02501060627400875,0.04922027885913849,0.051533203572034836,0.027265768498182297,0.012508564628660679,-0.1626400351524353,-0.0003798340621870011,0.1954045593738556,0.14818252623081207,-0.021543825045228004,0.22981007397174835,-0.08403465896844864,0.016229042783379555,-0.3482951521873474,0.05525575950741768,-0.03997715562582016,-0.19381652772426605,0.03785675764083862,-0.19459959864616394,0.07380417734384537,-0.08823458105325699,0.0017027738504111767,0.0671996921300888,-0.18506881594657898,-0.02513303980231285,-0.07953321933746338,0.36415499448776245,-0.1636543869972229,-0.03387697786092758,0.005509605165570974,0.07391688972711563,0.1720908135175705,0.19302958250045776,-0.028808796778321266,0.056215617805719376,0.06841277331113815,-0.018536856397986412,0.18733945488929749,0.028440197929739952,-0.15117673575878143,0.11559510976076126,-0.05363567918539047,0.008862585760653019,-0.10872911661863327,0.09783525764942169,0.17238318920135498,0.2256024181842804,-0.06157265231013298,-0.0460902638733387,-0.13338328897953033,-0.08413136750459671,0.20319366455078125,0.07071487605571747,-0.07469969242811203,-0.027562828734517097,-0.010064369067549706,0.10331466794013977,-0.10409362614154816,-0.06979718059301376,-0.15453970432281494,0.06295866519212723,0.006256012711673975,-0.0661269873380661,-0.017029162496328354,0.0995146855711937,-0.06313593685626984,-0.2565561830997467,0.06902970373630524,0.017643865197896957,0.047054171562194824,-0.017490968108177185,0.09154493361711502,0.028053564950823784,-0.09177450835704803,0.07524698972702026,0.05055266246199608,-0.27806317806243896,-0.15962854027748108,-0.0321221798658371,-0.10739520192146301,0.034750182181596756,0.15298433601856232,0.020013142377138138,-0.2824479043483734,-0.03640369325876236,0.17884741723537445,0.03968992084264755,0.036549679934978485,0.025958186015486717,-0.09086774289608002,0.047839220613241196,-0.08569952845573425,0.2185417115688324,-0.2435612976551056,-0.017504969611763954,-0.026497047394514084,0.12482292950153351,-0.19965527951717377,0.1320294588804245,-0.15272170305252075,0.041811127215623856,-0.2720024287700653,0.18203093111515045,0.22153852880001068,-0.12780632078647614,0.15247361361980438,0.009808473289012909,-0.18397840857505798,0.17176984250545502,0.2177208960056305,0.18464860320091248,0.10335643589496613,0.09686361998319626,0.04143751040101051,0.039280083030462265,0.056207261979579926,-0.316128134727478,0.0006710471934638917,-0.07358604669570923,-0.17298051714897156,0.2809048295021057,0.143841952085495,0.19337140023708344,0.08247911185026169,-0.09884270280599594,0.033569373190402985,-0.030379625037312508,0.0832054391503334,0.08869974315166473,0.0034535808954387903,-0.013462966307997704,-0.013487097807228565,-0.14669018983840942,-0.05027533695101738,0.030060023069381714,0.04656057804822922,-0.014893753454089165,-0.07048024982213974,-0.12871725857257843,-0.17864565551280975,0.18809129297733307,-0.008564047515392303,0.16093280911445618,-0.1680915504693985,-0.05234634131193161,-0.03589291870594025,0.1997559368610382,0.22882045805454254,0.1360556185245514,-0.019492054358124733,-0.09629961848258972,-0.05762328952550888,-0.16108161211013794,0.031137831509113312,0.14705565571784973,-0.14422498643398285,-0.08834907412528992,-0.1546197086572647,0.12903839349746704,0.06255178898572922,-0.14682817459106445,-0.2573072016239166,-0.015136642381548882,0.06774034351110458,-0.09275350719690323,-0.03743162006139755,0.01996351219713688,-0.21939139068126678,-0.2426912784576416,0.11096850782632828,-0.017060792073607445,-0.07018482685089111,0.09280098974704742,-0.16606026887893677,-0.035739317536354065,-0.08167911320924759,0.10754963755607605,0.050316669046878815,-0.09646192938089371,-0.05571683123707771,0.11032358556985855,-0.013809596188366413,0.12318011373281479,0.16388799250125885,0.060007330030202866,0.11478673666715622,0.09703477472066879,0.21263547241687775,-0.056341588497161865,-0.05949203670024872,0.09599482268095016,-0.18954430520534515,0.008934308774769306,0.13377398252487183,-0.08553018420934677,0.034526702016592026,0.07557005435228348,0.09392761439085007,-0.03519695624709129,0.08149468898773193,0.02999362349510193,0.019737329334020615,0.15391413867473602,0.05724280700087547,0.12032177299261093,0.16641132533550262,-0.06989718228578568,0.13342301547527313,0.2696473002433777,0.11333474516868591,0.17127901315689087,-0.11813405901193619,-0.16861940920352936,0.1120016947388649,-0.07143668830394745,0.07185313105583191,-0.07622227817773819,0.027275387197732925,0.03953556343913078,0.08456161618232727,0.2629656195640564,0.010868395678699017,-0.09154821187257767,0.1395174115896225,0.08671251684427261,-0.22608771920204163,0.18584971129894257,-0.08604942262172699,0.056304968893527985,0.20149113237857819,0.012108011171221733,-0.016885990276932716,-0.012274593114852905,0.07275829464197159,-0.08338582515716553,-0.07574504613876343,0.08590558171272278,0.20346292853355408,0.31693801283836365,-0.16542290151119232,-0.09384674578905106,-0.2751098573207855,0.13098858296871185,0.04291451722383499,0.18880987167358398,-0.148826003074646,-0.21552897989749908,-0.03923158720135689,-0.002423032419756055,0.012967688031494617,0.35009217262268066,-0.09531815350055695,-0.11068964749574661,-0.2731828987598419,0.07657130807638168,0.22682547569274902,0.35005131363868713,0.1555304229259491,0.05029426887631416,0.13664813339710236,0.010571113787591457,-0.21170355379581451,0.11369270086288452,-0.04832499846816063,-0.09954138845205307,-0.11335354298353195,0.08148244023323059,-0.03828601911664009,-0.22583894431591034,-0.06112927943468094,0.1383666694164276,0.13385899364948273,-0.13961391150951385,0.029668288305401802,-0.10044023394584656,-0.13622473180294037,0.12195254862308502,0.026697732508182526,-0.05840010941028595,-0.044616520404815674,0.02883409708738327,-0.03850632160902023,-0.10925358533859253,0.027657020837068558,0.1109478697180748,-0.1445881724357605,0.05465897172689438,-0.2203872948884964,0.13853344321250916,-0.03594159334897995,0.0014219144359230995,-0.06331486254930496,0.039081964641809464,-0.3411102890968323,0.1889098584651947,0.27670615911483765,0.12928101420402527,0.06784013658761978,0.078280970454216,-0.25884613394737244,0.11513537913560867,-0.1251487284898758,0.2067597359418869,-0.17237858474254608,-0.14230786263942719,0.2030642330646515,-0.10648177564144135,-0.09515955299139023,-0.17165568470954895,-0.07437735795974731,0.10945168137550354,-0.013403750024735928,0.18457505106925964,-0.030377833172678947,0.25250372290611267,-0.005157995503395796,0.18895210325717926,0.0938173308968544,-0.09805438667535782,-0.15481911599636078,-0.1529342383146286,-0.13325239717960358,0.189433291554451,0.127939373254776,0.19753533601760864,0.19842146337032318,0.10955968499183655,-0.009017865173518658,0.22129403054714203,0.16923139989376068,0.05317063629627228,-0.11003319174051285,0.026665812358260155,-0.03997844457626343,0.05707350745797157,0.02196260169148445,0.020320812240242958,-0.206816166639328,-0.1580490618944168,0.013624069280922413,-0.023494308814406395,-0.0945056900382042,0.14342880249023438,-0.05883069336414337,0.11748548597097397,-0.11326394975185394,0.11518805474042892,0.014302127994596958,-0.035705938935279846,0.07782849669456482,-0.008635799400508404,0.19727002084255219,0.3104150593280792,0.34904322028160095,0.13283400237560272,-0.02257019840180874,-0.08301538228988647,-0.13550227880477905,0.05395282432436943,-0.048878930509090424,0.028933925554156303,0.06544458866119385,0.07045996189117432,-0.06328612565994263,0.11103250086307526,-0.053703583776950836,-0.05165199935436249,-0.061131954193115234,0.07205822318792343,0.08458787202835083,-0.1562756448984146,0.022721711546182632,0.01803811453282833,-0.03741380199790001,0.21836189925670624,0.05542249605059624,0.22289462387561798,0.15404389798641205,0.05188268795609474,-0.051962196826934814,-0.12562409043312073,0.018238229677081108,-0.008179176598787308,-0.06694327294826508,0.06458192318677902,-0.11268008500337601,-0.036345429718494415,0.08317358791828156,-0.06644048541784286,0.12137898057699203,-0.011929979547858238,-0.15094545483589172,-0.033514659851789474,0.019780520349740982,-0.061773378401994705,0.062157612293958664,0.14625872671604156,0.0975290909409523,-0.014933641068637371,0.061442840844392776,0.011766772717237473,0.05096433684229851,0.009387016296386719,-0.14030295610427856,0.04221993684768677,0.03385383263230324,-0.08158771693706512,-0.10973901301622391,0.09407670795917511,-0.07602360099554062,0.07908948510885239,-0.06142958998680115,-0.08006428927183151,-0.0009398286347277462,-0.2552123963832855,-0.20178274810314178,-0.21703776717185974,-0.4521882236003876,0.05620172992348671,-0.023065421730279922,-0.0314963273704052,-0.29874107241630554,-0.24217115342617035,-0.3509449064731598,-0.06774476170539856,0.06572097539901733,-0.2919848561286926,0.014679010026156902,0.24332137405872345,0.30222970247268677,-0.03545192629098892,-0.08452895283699036,-0.13915489614009857,-0.013212236575782299,0.213768869638443,0.39720648527145386,0.04306640103459358,-0.09719008207321167,0.0011250055395066738,-0.17725463211536407,-0.40465447306632996,-0.2989349663257599,0.046639226377010345,-0.23116514086723328,-0.3582495152950287,0.015851477161049843,0.21236515045166016,0.09481090307235718,-0.024553202092647552,0.2533506453037262,-0.09017253667116165,0.14447784423828125,-0.09973305463790894,-0.1005740687251091,0.13584551215171814,0.03931872919201851,-0.19404436647891998,-0.13088355958461761,-0.0733097568154335,0.046040814369916916,0.14594995975494385,-0.019084053114056587,-0.16048531234264374,0.011373857967555523,0.02458629198372364,-0.2450060099363327,-0.05688745155930519,0.22651271522045135,0.06788909435272217,0.10095201432704926,0.14422652125358582,0.07147317379713058,0.08700723201036453,0.027636762708425522,-0.06506405025720596,-0.045919761061668396,-0.019865641370415688,0.08883747458457947,-0.04272385686635971,-0.03446931764483452,0.011230861768126488,0.07291349023580551,0.0404912494122982,0.0349762961268425,0.15098093450069427,-0.02380327694118023,-0.17889173328876495,-0.19524262845516205,0.13808880746364594,-0.06254174560308456,0.01752920262515545,0.15964703261852264,-0.12383997440338135,-0.11093682050704956,-0.05348198860883713,0.22099773585796356,0.05520322918891907,-0.10821061581373215,0.1837460845708847,0.14106442034244537,0.07659025490283966,-0.14671625196933746,0.14940419793128967,0.1318398416042328,-0.13101820647716522,-0.12119333446025848,-0.036599624902009964,0.1414564698934555,0.01970667578279972,-0.030953483656048775,-0.11321049183607101,0.1022692397236824,-0.05463320016860962,-0.10646969079971313,0.24757841229438782,0.09559506922960281,-0.010766697116196156,-0.019009126350283623,-0.03428380563855171,-0.09774860739707947,0.21216532588005066,-0.018389776349067688,-0.17937123775482178,-0.142228364944458,-0.045051444321870804,0.1604469120502472,0.03106658346951008,-0.21912339329719543,-0.07659797370433807,-0.18225209414958954,-0.0033682913053780794,0.08574432134628296,0.022599706426262856,0.03808007389307022,0.13706845045089722,-0.10682685673236847,-0.04333119094371796,-0.1778930425643921,0.22674725949764252,0.07191004604101181,-0.021524755284190178,0.013924981467425823,-0.06019269675016403,0.046064142137765884,0.2732760012149811,0.07325240969657898,0.07179105281829834,0.07896659523248672,-0.07270368933677673,-0.06088636443018913,0.24823440611362457,-0.07282884418964386,0.03291241452097893,0.05637183040380478,0.19956576824188232,-0.009482551366090775,-0.11880433559417725,-0.1608806997537613,0.09055604785680771,-0.048031941056251526,0.09648270905017853,0.006344863213598728,0.03795710206031799,-0.06812337785959244,0.15141509473323822,-0.05481134355068207,0.0365837886929512,0.061780910938978195,0.048205532133579254,0.09966710209846497,0.15268293023109436,0.021068919450044632,-0.03506824001669884,-0.1428196281194687,-0.12394604831933975,0.0668349340558052,0.07296322286128998,0.15610912442207336,-0.008731875568628311,-0.1021559089422226,-0.08077508211135864,-0.06101260334253311,0.1094243973493576,0.019020697101950645,-0.08294817805290222,0.09718018770217896,-0.05799713358283043,0.05473155155777931,0.003704511094838381,0.16782669723033905,0.04212966561317444,0.025641215965151787,0.010924193076789379,0.056158311665058136,0.03175317123532295,0.023689674213528633,0.11260160058736801,-0.06920722126960754,-0.09191494435071945,-0.021473200991749763,-0.04653144255280495,0.025991497561335564,-0.03178177401423454,0.060752108693122864,0.10563980787992477,-0.16444219648838043,-0.13466055691242218,0.06979002058506012,0.14476321637630463,-0.06047442927956581,-0.01288030669093132,0.1303899735212326,0.05417560040950775,-0.03362547978758812,0.05331498011946678,0.10158686339855194,0.1386733055114746,0.29695501923561096,0.12090232223272324,0.1257743537425995,-0.13867267966270447,-0.10155948251485825,-0.0051878755912184715,-0.045749958604574203,0.012637356296181679,-0.06657341122627258,-0.05176848918199539,-0.18435899913311005,0.055130694061517715,-0.14189457893371582,-0.07766788452863693,-0.2055760771036148,-0.033529166132211685,0.11341281980276108,0.14808610081672668,0.11870946735143661,0.11753074079751968,0.0731167271733284,0.08218562602996826,0.044010017067193985,0.2090965360403061,0.19383537769317627,0.10455828160047531,-0.0788789615035057,-0.07342444360256195,-0.05082666501402855,-0.10971542447805405,-0.04531865939497948,-0.12893003225326538,0.11869370192289352,0.10432451963424683,-0.02809232659637928,-0.058873534202575684,0.13091978430747986,-0.13784167170524597,-0.0010190196335315704,0.1328689604997635,-0.0581020824611187,-0.01554885134100914,0.2083280086517334,0.08246195316314697,-0.10072815418243408,0.0031066625379025936,-0.18593791127204895,-0.15214455127716064,-0.14415669441223145,-0.04514322802424431,0.050554513931274414,-0.32868069410324097,0.0773988887667656,-0.056622155010700226,0.18609760701656342,-0.2912040054798126,0.1525486707687378,-0.21772980690002441,-0.0799890011548996,-0.1500459462404251,0.13966785371303558,-0.044290393590927124,-0.27751514315605164,0.07115151733160019,-0.004857262596487999,-0.0007527139387093484,0.27423736453056335,-0.16063763201236725,0.044081442058086395,-0.22599802911281586,0.2113366723060608,-0.13984037935733795,-0.3433286249637604,0.05961139500141144,-0.008437913842499256,0.2702859342098236,-0.09112343192100525,-0.03510793671011925,-0.0014754722360521555,-0.005554115399718285,-0.011711605824530125,-0.06927793473005295,0.11868702620267868,0.06785266846418381,-0.03255545720458031,-0.03283651918172836,0.04904048517346382,-0.09673094749450684,0.054381560534238815,0.12352564185857773,0.08969993889331818,-0.10965529084205627,-0.09668314456939697,0.25282907485961914,0.014630635268986225,0.16929158568382263,0.03542511165142059,0.03646483272314072,0.0397912822663784,-0.6410000920295715,0.35046300292015076,0.6018617749214172,-0.796452522277832,0.394184947013855,-1.090314269065857,-0.5132834911346436,-0.2745904326438904,0.5968449115753174,-1.0999470949172974,-0.27459022402763367,-1.2170840501785278,0.048910047858953476,-1.0331367254257202,0.09741558879613876,-0.7941499948501587,0.07079299539327621,-0.1779511719942093,0.04289254918694496,0.16778677701950073,0.16439910233020782,-0.036898862570524216,-0.26845043897628784,0.08732108771800995,-0.22280554473400116,-0.07846725732088089,0.20018118619918823,-0.1265348345041275,-0.042567502707242966,-0.03134125843644142,0.0053930096328258514,-0.10769931226968765,0.06709281355142593,0.03821849822998047,-0.0670616552233696,-0.2597986161708832,-0.23416370153427124,0.2898404598236084,0.19153669476509094,-0.25093144178390503,0.22620685398578644,-0.0388011559844017,0.15277571976184845,0.31510886549949646,0.07530751824378967,0.12958860397338867,0.12219789624214172,0.31538066267967224,-0.06145314499735832,-0.07031599432229996,0.05792165547609329,0.12469951808452606,0.13937465846538544,0.15548427402973175,0.05523979291319847,-0.04666466638445854,-0.010646025650203228,-0.004582533147186041,-0.2641015648841858,0.0005690821562893689,0.0044901431538164616,0.11004596948623657,0.0795578807592392,0.00615930650383234,0.16219517588615417,0.1290404498577118,-0.1268758326768875,-0.16690440475940704,-0.025159168988466263,0.044532258063554764,-0.0528433695435524,-0.029244327917695045,-0.10286276787519455,0.033038824796676636,0.12740787863731384,0.19106563925743103,0.07601151615381241,-0.12022372335195541,0.018269993364810944,-0.0411120243370533,0.23585620522499084,-0.08691167086362839,0.022030586376786232,0.03903409093618393,0.07332400232553482,-0.1263955533504486,-0.222416490316391,0.17737311124801636,0.08399637043476105,-0.2086469531059265,-0.11990319937467575,0.3876064121723175,-0.08427441120147705,-0.12949584424495697,-0.17525088787078857,-0.20604994893074036,-0.12433576583862305,-0.2028195858001709,-0.19944052398204803,0.02031150832772255,0.05864494666457176,-0.1387488842010498,-0.24313025176525116,-0.07967983931303024,-0.013695521280169487,0.15270420908927917,-0.025526538491249084,-0.15843892097473145,-0.27732518315315247,-0.1540849208831787,0.046072036027908325,-0.008738487958908081,0.16006048023700714,0.1497516632080078,0.06906470656394958,-0.2782920300960541,0.1620311290025711,0.3031080961227417,0.2046130746603012,-0.17708942294120789,0.17116078734397888,0.11197007447481155,-0.22470799088478088,0.11218275129795074,0.24584384262561798,0.04365134239196777,0.005064521916210651,0.3601698875427246,0.06711102277040482,-0.08261016756296158,-0.16056223213672638,-0.07640809565782547,0.028322111815214157,-0.057618398219347,-0.03465168923139572,-0.10255836695432663,-0.05999743938446045,0.37544772028923035,-0.22717393934726715,0.08545121550559998,-0.09221696853637695,0.18054740130901337,0.10682961344718933,0.17263126373291016,0.09612585604190826,0.08809629082679749,-0.2395356148481369,-0.20053865015506744,-0.27632901072502136,-0.026878470554947853,0.036918047815561295,-0.10511763393878937,-0.09346379339694977,0.15208691358566284,0.21052980422973633,-0.14089734852313995,-0.05798476189374924,0.1679530292749405,0.04272802919149399,0.3736821115016937,-0.2372269332408905,0.2035752385854721,0.23160801827907562,-0.039199646562337875,0.2824413478374481,-0.1571161448955536,0.4332627058029175,-0.0829881876707077,0.1424952894449234,-0.06610759347677231,0.30896756052970886,0.37596914172172546,0.3161654770374298,-0.07684629410505295,0.06308629363775253,-0.03845557942986488,-0.09344325959682465,-0.0966683030128479,-0.07266661524772644,0.024871017783880234,0.07342121005058289,-0.07466583698987961,0.03302128240466118,-0.015600178390741348,0.10478275269269943,0.23710395395755768,-0.0687466561794281,0.09641878306865692,0.11986397206783295,0.030924813821911812,-0.007511932868510485,0.1322707235813141,0.057186223566532135,0.3223603069782257,-0.07060221582651138,-0.0619516558945179,-0.11498352885246277,-0.09924783557653427,0.019982630386948586,0.06611580401659012,-0.09403379261493683,0.030409935861825943,0.18771536648273468,-0.1339392215013504,-0.02881869114935398,-0.1088750958442688,0.06010528281331062,-0.07833428680896759,-0.044650137424468994,-0.17146892845630646,-0.3153623938560486,0.3061769902706146,-0.21222105622291565,0.12673604488372803,-0.15107592940330505,0.17945919930934906,-0.09497915953397751,0.03485748544335365,-0.23560374975204468,-0.2673628628253937,0.23590251803398132,-0.02532397024333477,0.06025049835443497,0.02998124621808529,0.21502074599266052,0.018068142235279083,-0.3608795404434204,0.20370472967624664,-0.29646429419517517,0.1846914440393448,-0.04854023456573486,-0.01583441160619259,0.02206391654908657,0.37373751401901245,0.05392332002520561,-0.04273120313882828,0.18576228618621826,0.3193052411079407,0.10799279808998108,0.05088578164577484,0.10790160298347473,0.2550947964191437,-0.009290472604334354,-0.1881473958492279,-0.27116450667381287,-0.057861797511577606,0.1440049111843109,-0.08037884533405304,-0.03463968262076378,0.14360222220420837,-0.11947817355394363,0.06463275849819183,-0.010465698316693306,0.16218173503875732,0.14734019339084625,0.2458193004131317,0.12391824275255203,-0.4703706204891205,-0.12504388391971588,-0.05718974024057388,-0.267844557762146,0.09076695889234543,-0.33851781487464905,-0.05217168852686882,-0.060219015926122665,-0.1012466624379158,0.06588978320360184,0.15047673881053925,-0.260301798582077,0.31086939573287964,-0.12685777246952057,-0.026247767731547356,-0.13898305594921112,-0.08937765657901764,0.016815289855003357,-0.020996704697608948,0.009746874682605267,-0.03564101457595825,0.0595666877925396,0.13784466683864594,0.08928687870502472,-0.03685987740755081,-0.01605314388871193,-0.17865249514579773,0.0579686239361763,-0.27275750041007996,-0.08875084668397903,-0.060378577560186386,-0.06885526329278946,-0.062069639563560486,0.1206812709569931,0.08935580402612686,-0.02043362893164158,-0.19471585750579834,0.11295738071203232,0.1000240370631218,-0.0886802151799202,0.08195275813341141,-0.04828684404492378,-0.19960851967334747,0.09291322529315948,-0.05747508630156517,0.001656683743931353,-0.0975351631641388,-0.026261737570166588,0.006621639244258404,0.007055489346385002,0.051987964659929276,-0.062176913022994995,-0.210276260972023,-0.03093157894909382,-0.19166696071624756,0.02755342610180378,0.2854757010936737,0.0017330112168565392,0.2006518393754959,-0.06792023777961731,-0.09498394280672073,0.041024889796972275,0.19355323910713196,-0.09799507260322571,-0.1515299677848816,-0.08705625683069229,0.06898613274097443,-0.01912127621471882,0.06199069693684578,0.04347102716565132,-0.023995792493224144,0.23317456245422363,-0.19959726929664612,0.21042047441005707,0.1987847536802292,-0.22244511544704437,-0.014847096055746078,-0.1522342413663864,0.16886422038078308,-0.15743693709373474,-0.103050097823143,0.10535977780818939,-0.05769920349121094,0.0787304937839508,-0.16119714081287384,0.14917458593845367,0.0010170663008466363,0.12240395694971085,-0.06616469472646713,-0.13345977663993835,-0.2379751056432724,0.09976709634065628,-0.17355188727378845,-0.1677800565958023,-0.013886179774999619,0.13795161247253418,-0.02902579866349697,0.15551401674747467,-0.15866750478744507,0.13851980865001678,-0.04418136551976204,0.045092783868312836,-0.005518456920981407,-0.021357079967856407,-0.047184087336063385,-0.08658014237880707,0.14983873069286346,0.11824941635131836,0.0071931397542357445,0.18332067131996155,0.013872407376766205,0.05805400386452675,-0.15525321662425995,-0.016116304323077202,-0.03371460363268852,0.1404060423374176,0.07385915517807007,-0.03973329812288284,-0.025714512914419174,-0.05198374018073082,-0.12199418246746063,-0.0041718860156834126,0.0807604044675827,0.09372688829898834,0.004305145237594843,0.0011339475167915225,-0.14394903182983398,0.022614875808358192,-0.2061699628829956,0.062457337975502014,0.23757769167423248,0.04562404006719589,-0.2250629961490631,0.2388332188129425,0.04627854377031326,0.014193762093782425,-0.07877063006162643,-0.056421905755996704,-0.002999386517331004,-0.03059299662709236,-0.17821669578552246,0.0715569406747818,-0.03132357448339462,0.08689109981060028,0.13453418016433716,0.1352064311504364,0.14718998968601227,-0.07583768665790558,-0.1439935564994812,0.3663637936115265,0.38737601041793823,0.17385849356651306,0.013462287373840809,-0.05711894482374191,0.07459120452404022,0.05636639520525932,-0.27497443556785583,-0.019693821668624878,0.05533508583903313,-0.20147761702537537,-0.12290389090776443,-0.031982675194740295,0.10986774414777756,0.03603903949260712,0.11744507402181625,0.09269455820322037,0.06400097161531448,-0.016399120911955833,-0.1009153351187706,0.20229879021644592,-0.11950817704200745,-0.20020130276679993,-0.2394619584083557,-0.1428227424621582,0.38360121846199036,-0.06399524956941605,-0.037189826369285583,0.32507458329200745,-0.08356086909770966,0.161759153008461,-0.06322668492794037,0.029643170535564423,0.16701063513755798,-0.19543853402137756,0.13545973598957062,0.1476828157901764,-0.1499505639076233,0.01280482579022646,-0.08039340376853943,-0.002485438250005245,-0.021642854437232018,-0.09469147771596909,0.18872496485710144,0.1443609744310379,0.06714426726102829,-0.19034597277641296,-0.026091933250427246,0.06222337856888771,0.05019945278763771,0.04337671399116516,0.17031221091747284,0.022783761844038963,-0.04859435185790062,-0.17052201926708221,-0.1487819105386734,0.055608753114938736,0.1469900906085968,-0.03010711818933487,0.10807076096534729,-0.0655510425567627,-0.019490623846650124,0.002404836006462574,-0.06673198938369751,-0.07301989942789078,0.1325443983078003,0.07069157809019089,0.057540301233530045,0.037926580756902695,0.013823779299855232,0.03218286857008934,-0.2581825852394104,0.19582101702690125,0.055920667946338654,0.2245953530073166,-0.0008214329136535525,-0.07560230046510696,-0.18981777131557465,-0.010800081305205822,0.17537647485733032,-0.07024304568767548,0.0151006318628788,0.17608396708965302,-0.11718745529651642,0.05449903383851051,0.008081117644906044,-0.08660407364368439,0.07612989842891693,-0.024606209248304367,0.05115796998143196,0.07461655139923096,-0.3024495244026184,-0.27568188309669495,-0.1810205578804016,0.29022642970085144,0.04384225234389305,-0.20426324009895325,-0.1718132048845291,-0.06634021550416946,-0.16841983795166016,0.320684552192688,-0.06232566386461258,0.1622229516506195,-0.17937523126602173,-0.17965848743915558,-0.10954740643501282,0.27275553345680237,0.08448383957147598,0.10776445269584656,-0.31004834175109863,-0.11671696603298187,0.0025974027812480927,0.12634918093681335,-0.1897522509098053,-0.17449244856834412,0.33035632967948914,-0.17612752318382263,-0.22462746500968933,0.35413697361946106,0.2418905347585678,-0.02773449569940567,-0.11639155447483063,0.00658014602959156,0.00775501411408186,0.051800090819597244,0.2003394365310669,0.0058950940147042274,-0.1391737163066864,0.016452044248580933,-0.06142227351665497,-0.220940500497818,0.06992772966623306,-0.07901109009981155,-0.008908595889806747,-0.020984921604394913,-0.034808449447155,0.10847648233175278,-0.2095501869916916,-0.06042979657649994,0.2479405552148819,-0.015019038692116737,0.13213208317756653,-0.10557185113430023,-0.30499640107154846,-0.1563805788755417,0.27910199761390686,0.184454545378685,0.04058728367090225,-0.2361394762992859,0.29651546478271484,-0.010248228907585144,-0.21904589235782623,0.13865040242671967,0.050496116280555725,-0.18007473647594452,-0.037777967751026154,0.06709983199834824,0.1920534372329712,-0.00861752312630415,-0.07618116587400436,-0.025636183097958565,0.06226082891225815,0.05911596119403839,-0.1429702788591385,0.11717264354228973,-0.05142771825194359,-0.27660977840423584,-0.04402516409754753,-0.02230669930577278,0.13654279708862305,-0.2850268483161926,-0.22322915494441986,-0.015145293436944485,0.15351341664791107,-0.04448007419705391,-0.18560315668582916,0.03961780294775963,-0.18898272514343262,-0.2732893228530884,0.02379007078707218,0.13807030022144318,-0.10280578583478928,-0.09968680888414383,-0.08077848702669144,0.033200524747371674,-0.13036710023880005,0.08236945420503616,0.11001551896333694,0.028847800567746162,-0.02413359098136425,-0.2466777116060257,0.06817881762981415,0.07819418609142303,-0.013835633173584938,-0.04903779923915863,-0.04522217810153961,-0.008163701742887497,0.03217531368136406,0.2847765386104584,-0.03282943367958069,-0.18012982606887817,-0.08124500513076782,-0.31784093379974365,-0.05469103157520294,-0.024960627779364586,0.022845683619379997,-0.14442725479602814,-0.2071796953678131,0.0676017701625824,-0.005764157045632601,-0.24400049448013306,-0.2547222971916199,-0.13071070611476898,-0.038127005100250244,-0.16341303288936615,0.05045798048377037,-0.07053311169147491,-0.1570347249507904,-0.05282660946249962,0.03250885754823685,-0.13228124380111694,0.1490362137556076,0.0025473854038864374,-0.034006327390670776,-0.012646008282899857,0.18012946844100952,-0.06739816814661026,-0.11065628379583359,-0.09129992127418518,-0.1424674242734909,-0.13753214478492737,0.07825134694576263,-0.07837098091840744,-0.0645635575056076,0.04809645563364029,0.06224433705210686,-0.01155021134763956,0.001523970509879291,0.0348111055791378,-0.09335484355688095,-0.032314054667949677,0.13212496042251587,0.1024409830570221,0.054855864495038986,-0.18002815544605255,-0.08141358941793442,0.1552034616470337,-0.24104109406471252,0.17918337881565094,-0.12467392534017563,-0.09259893745183945,-0.11204665899276733,-0.0015131601830944419,-0.1365414559841156,-0.011969415470957756,0.1283973753452301,0.27222564816474915,-0.02906571701169014,-0.0389522947371006,-0.06714065372943878,0.09825186431407928,-0.10446511209011078,-0.22609828412532806,-0.17405538260936737,-0.32302358746528625,-0.04495406523346901,-0.029369303956627846,0.049403849989175797,0.0641227588057518,0.15155856311321259,-0.23275595903396606,0.06522460281848907,0.07043825834989548,0.05229366943240166,-0.07426794618368149,0.004317479208111763,0.04345899075269699,0.05025181174278259,-0.002692268928512931,0.12343264371156693,-0.07011666148900986,-0.11716603487730026,-0.06807167083024979,-0.09402605891227722,0.1504463404417038,-0.20464731752872467,0.047791626304388046,-0.09207192063331604,-0.28253307938575745,0.05802127346396446,0.05408000946044922,-0.2284168154001236,0.0675225704908371,0.060779910534620285,0.1446874886751175,0.040079232305288315,0.14297938346862793,-0.04376251995563507,-0.06651519238948822,0.0028704695869237185,0.26685631275177,0.0013385307975113392,-0.16808968782424927,0.0780194103717804,-0.19278296828269958,0.17563757300376892,-0.03533472120761871,0.14431634545326233,0.19870904088020325,0.00563854118809104,-0.0010161306709051132,0.0808938592672348,-0.13628827035427094,0.2230512648820877,-0.11397454887628555,0.004225770011544228,-0.07226929813623428,0.050500936806201935,0.10271092504262924,0.14438529312610626,0.05219850316643715,-0.09612499177455902,0.18267807364463806,-0.1366795003414154,-0.07861194014549255,-0.016412220895290375,0.021275969222187996,-0.04491795226931572,-0.04084431752562523,-0.05624775588512421,0.10926719009876251,-0.16400058567523956,-0.14604452252388,-0.06734098494052887,-0.08650868386030197,0.1114635020494461,-0.02767043747007847,-0.2930130958557129,-0.1326608657836914,-0.2148294597864151,0.21766164898872375,0.05350779742002487,-0.09781321883201599,0.07554767280817032,0.06070590019226074,-0.017683792859315872,0.09812022000551224,-0.0847087949514389,0.24941344559192657,0.003198643447831273,0.18609386682510376,-0.07695034891366959,-0.15587389469146729,-0.06268302351236343,-0.22239205241203308,0.14641079306602478,-0.06170301511883736,0.04918713867664337,0.048830486834049225,0.08289909362792969,0.04249773174524307,-0.17347563803195953,-0.08076637983322144,0.09823329001665115,0.22981223464012146,0.05160065367817879,0.02872510999441147,0.0280858613550663,0.10988420248031616,0.05866986885666847,0.08814021199941635,0.08756159245967865,0.06369516253471375,0.022960620000958443,0.17256107926368713,-0.17745932936668396,0.05933918431401253,-0.07346954196691513,0.02882729470729828,0.01465771347284317,0.15095943212509155,0.11233688145875931,-0.1870444267988205,-0.13985905051231384,0.18530210852622986,0.13409985601902008,0.06400575488805771,0.1438242346048355,-0.0008155765244737267,0.1967615783214569,-0.10249843448400497,-0.19794780015945435,0.12671785056591034,-0.012352465651929379,0.013968772254884243,-0.01018978375941515,-0.06487221270799637,0.1511768102645874,0.06490350514650345,0.0067768339067697525,0.10625055432319641,0.14564694464206696,-0.16937264800071716,-0.14059650897979736,0.003588990541175008,0.10204657912254333,-0.20112435519695282,-0.3061000108718872,-0.06805262714624405,0.14289532601833344,0.1002197265625,-0.20190058648586273,-0.1185828223824501,-0.08247579634189606,-0.12768398225307465,0.13820987939834595,0.024118229746818542,-0.032677557319402695,0.15413138270378113,-0.21671967208385468,-0.03202103450894356,0.10259062796831131,0.034209318459033966,0.05946297198534012,-0.08107784390449524,-0.02321670949459076,-0.09907156229019165,-0.05072964355349541,-0.0515357069671154,0.08536618202924728,0.19412347674369812,0.32136186957359314,-0.07188718765974045,-0.05051019415259361,-0.22608189284801483,-0.08128400146961212,-0.13125824928283691,-0.3212626576423645,0.11697142571210861,-0.004292867612093687,-0.11786001920700073,-0.14444224536418915,-0.03008245676755905,0.1617937684059143,-0.05525904893875122,0.01609630137681961,0.021533461287617683,-0.001683882437646389,-0.008077752776443958,-0.11505288630723953,-0.12852434813976288,0.19113682210445404,-0.12399160116910934,-0.20548614859580994,0.1796182543039322,0.2163822054862976,-0.3625164330005646,-0.20638145506381989,-0.08136918395757675,0.08543854206800461,0.361361026763916,0.1333140879869461,0.013591422699391842,-0.29595059156417847,0.049636196345090866,-0.07158637791872025,-0.03774607181549072,0.025983786210417747,0.0000345351618307177,-0.1172904223203659,0.13010181486606598,0.08757885545492172,0.18935365974903107,-0.1278558373451233,-0.054673612117767334,0.07925834506750107,-0.039940960705280304,0.18269473314285278,-0.18712309002876282,-0.06994529813528061,-0.09295957535505295,0.05382983013987541,0.15441544353961945,-0.009391809813678265,0.02356896735727787,-0.042793020606040955,-0.22494453191757202,-0.13890643417835236,0.17627382278442383,0.22120733559131622,-0.06341288983821869,-0.036022335290908813,-0.09215251356363297,0.17110362648963928,-0.14032390713691711,0.17373891174793243,-0.014422126114368439,0.12548625469207764,0.13958580791950226,-0.0709666833281517,0.07446364313364029,0.11807646602392197,-0.24691878259181976,-0.011269482783973217,0.08755476772785187,0.20316995680332184,-0.003951646853238344,0.032410699874162674,-0.0629783570766449,0.15821874141693115,-0.017271196469664574,-0.03419437259435654,0.12590602040290833,-0.19568510353565216,-0.18216286599636078,-0.09612727165222168,0.031533047556877136,-0.031363289803266525,-0.10038217157125473,0.013105612248182297,-0.00723366579040885,-0.05087155103683472,0.06250083446502686,0.015555096790194511,0.04000107944011688,-0.14999821782112122,-0.01613117754459381,0.024080563336610794,-0.0013261603889986873,-0.024521388113498688,0.013457640074193478,0.01088724285364151,-0.04033142328262329,0.010620636865496635,0.10338788479566574,0.022478783503174782,0.04929351806640625,-0.14994308352470398,-0.16983281075954437,-0.0909624770283699,0.3148891031742096,0.14012017846107483,0.04402358457446098,-0.17582271993160248,-0.013837133534252644,0.1339808702468872,-0.015240620821714401,-0.20124264061450958,-0.04990369826555252,-0.10766033083200455,-0.06156916543841362,0.01537476945668459,0.13879387080669403,-0.3160327672958374,0.12002647668123245,0.1024010181427002,0.1191948801279068,0.060253433883190155,0.008406058885157108,0.17217868566513062,0.04004301875829697,-0.029185250401496887,0.09421598166227341,-0.16257065534591675,-0.1373048573732376,0.06805891543626785,-0.0895264595746994,-0.08547194302082062,-0.23129378259181976,0.08979129046201706,-0.03758168965578079,-0.14895504713058472,-0.04820710048079491,-0.0028943102806806564,-0.057133667171001434,0.14308755099773407,-0.2612552046775818,-0.05572296679019928,0.06754712760448456,-0.16050638258457184,0.14503003656864166,-0.12933766841888428,0.2949698567390442,0.08569923043251038,0.02708294242620468,0.0641278326511383,0.15930864214897156,-0.14899003505706787,0.08444257080554962,-0.20467793941497803,0.051928967237472534,-0.27989083528518677,-0.21047057211399078,0.032958582043647766,-0.07226506620645523,0.2070392221212387,0.023103369399905205,-0.1310165524482727,0.10652413964271545,0.27663373947143555,-0.20307224988937378,0.10685465484857559,0.05190131440758705,0.09953326731920242,0.002313276519998908,-0.12106890976428986,-0.03223045542836189,0.2239905595779419,-0.19715243577957153,-0.005330962128937244,0.1938716322183609,-0.17086683213710785,0.008595306426286697,0.177023783326149,0.04377051070332527,0.09815133363008499,-0.0068659912794828415,0.1625843495130539,-0.013537905178964138,-0.2636052966117859,-0.05521828308701515,-0.069731704890728,0.16727609932422638,0.04344150051474571,0.0027798532973974943,-0.15398991107940674,-0.08873852342367172,-0.08493945002555847,0.12483429163694382,0.02129824459552765,0.1176760271191597,0.15864315629005432,-0.12779559195041656,-0.1920682042837143,0.16617511212825775,-0.021459629759192467,0.1266176402568817,0.01313579361885786,-0.1532701700925827,0.06546933948993683,-0.20254194736480713,-0.14103767275810242,0.01114947721362114,0.05402839928865433,-0.005352378822863102,-0.1377212256193161,0.07403382658958435,-0.04125547409057617,-0.05767015367746353,0.030552314594388008,0.15475298464298248,0.03198116272687912,0.057776063680648804,-0.0852627232670784,0.19867432117462158,-0.018314387649297714,-0.008475814014673233,-0.008521449752151966,0.05629744008183479,0.019454071298241615,0.10419216006994247,0.005621533840894699,-0.05209922790527344,-0.005285677500069141,0.026060638949275017,0.020384371280670166,-0.397104412317276,-0.5472812652587891,1.0399032831192017,0.3353184759616852,-0.8943818211555481,0.4231712222099304,0.22465655207633972,0.17303544282913208,0.5163657069206238,-1.1295459270477295,0.868850827217102,0.7887909412384033,-0.04615933075547218,0.04825417697429657,0.015586964786052704,-0.8797311782836914,0.00878247432410717,-0.1701868623495102,-0.0010960398940369487,-0.4039577841758728,0.17577525973320007,0.24773038923740387,0.22649846971035004,-0.07201196998357773,0.18445153534412384,0.10080748051404953,-0.024942582473158836,0.16438065469264984,-0.25422194600105286,0.1884063482284546,-0.06452783197164536,-0.1161745935678482,0.05262770876288414,-0.04700994864106178,-0.06661167740821838,0.15959332883358002,0.19896988570690155,-0.012743042781949043,0.011614575050771236,-0.22817932069301605,-0.29881608486175537,0.014312121085822582,0.0030489384662359953,-0.17578458786010742,0.043419502675533295,0.1186225414276123,0.06001044064760208,-0.042610593140125275,-0.06337899714708328,-0.2082947939634323,-0.1401439905166626,-0.13148732483386993,0.3647642433643341,-0.33615198731422424,-0.09420684725046158,-0.29719430208206177,-0.3401309549808502,-0.07361724972724915,-0.229710191488266,0.20143403112888336,0.19800660014152527,-0.3247395157814026,-0.11717457324266434,0.137102410197258,0.28270184993743896,0.23488515615463257,0.3962620496749878,0.0681149810552597,-0.15311887860298157,0.23301108181476593,-0.2083657830953598,0.4838539659976959,0.41849860548973083,-0.06607028841972351,0.3188020884990692,0.15034668147563934,0.19075413048267365,0.08124690502882004,0.15158584713935852,-0.18278275430202484,0.15297186374664307,-0.053970202803611755,0.4847336411476135,-0.15043219923973083,0.2016063630580902,-0.03659040108323097,0.03505245968699455,0.07709481567144394,0.2296125590801239,-0.09149838984012604,-0.13213929533958435,0.38679295778274536,-0.13865771889686584,-0.18546614050865173,0.12896420061588287,-0.06449247151613235,-0.29505038261413574,-0.20162445306777954,0.12537376582622528,-0.1950809806585312,-0.07965754717588425,0.1284496933221817,0.21526972949504852,0.13051043450832367,-0.17461667954921722,-0.17291228473186493,-0.14633190631866455,0.25746068358421326,0.028674211353063583,0.2516585886478424,0.05959803983569145,0.04816952720284462,0.05228400602936745,0.1342034488916397,-0.14882972836494446,0.02763059362769127,0.31871625781059265,0.0025946192909032106,0.08525553345680237,0.06362787634134293,-0.2217576801776886,0.05736018344759941,0.1969957798719406,-0.22217299044132233,0.09910701960325241,0.20076332986354828,-0.017861606553196907,0.14288929104804993,0.1618596762418747,0.03580469638109207,-0.5188539028167725,-0.1765207052230835,0.32909950613975525,-0.2772611677646637,-0.037614475935697556,-0.21642063558101654,0.032038163393735886,0.10628698766231537,-0.194161057472229,0.19112178683280945,-0.13658462464809418,0.10040204972028732,0.13697850704193115,0.116897813975811,-0.3095986247062683,0.12869735062122345,-0.28272587060928345,0.08755569905042648,0.5828381180763245,-0.290841281414032,-0.21134014427661896,0.008606251329183578,-0.21775281429290771,0.034374210983514786,-0.20201554894447327,0.31414273381233215,-0.39499515295028687,-0.05921146273612976,-0.027382517233490944,0.22804582118988037,0.32847100496292114,-0.016155647113919258,-0.11558321863412857,0.2377922683954239,-0.13961376249790192,0.4166555404663086,-0.20524275302886963,0.02529398538172245,-0.0005607930361293256,-0.08292075246572495,0.2516820728778839,-0.4848148822784424,0.18203885853290558,0.11191058158874512,0.015260230749845505,-0.20873381197452545,0.18836276233196259,-0.15835914015769958,-0.187411829829216,-0.19238728284835815,0.5004450082778931,-0.21974077820777893,0.06175146996974945,-0.04663756862282753,0.17374688386917114,-0.01631244085729122,-0.21525847911834717,0.0035264557227492332,0.046945758163928986,-0.15146036446094513,-0.04125269502401352,0.2772889733314514,-0.03675749525427818,-0.06852885335683823,-0.09157940745353699,0.03563499078154564,0.049080830067396164,0.15243662893772125,0.06692785769701004,0.052816472947597504,-0.2480899542570114,-0.1939689815044403,-0.2878616452217102,0.13841411471366882,-0.2801133096218109,-0.2012902945280075,-0.11561470478773117,0.14648093283176422,-0.42733293771743774,-0.15227721631526947,0.10548970848321915,-0.11181394010782242,0.3375089764595032,-0.03106682561337948,-0.1677914261817932,0.05038509890437126,0.27527227997779846,0.07691725343465805,-0.0937369167804718,0.017209328711032867,0.02311755158007145,0.10534568876028061,0.17301702499389648,-0.07197846472263336,-0.3225279748439789,0.08920226991176605,-0.23536843061447144,-0.16006778180599213,0.2684570550918579,-0.2762932777404785,0.18337221443653107,-0.13472937047481537,0.06963078677654266,0.15577426552772522,-0.027676371857523918,-0.17918747663497925,-0.11588095128536224,0.06175869330763817,-0.07507984340190887,0.14943687617778778,-0.023349573835730553,0.2027520090341568,0.1877465844154358,-0.014198103919625282,-0.05463886260986328,0.1057061105966568,0.1911909282207489,0.002580472268164158,0.26353970170021057,0.11771442741155624,0.2493898570537567,0.16420160233974457,0.0199448112398386,0.13455688953399658,-0.014614091254770756,-0.22814583778381348,-0.052465297281742096,-0.021083451807498932,-0.06128326430916786,-0.14881940186023712,0.02813851274549961,-0.01934359036386013,-0.23594681918621063,-0.19936197996139526,-0.08152975887060165,0.23095941543579102,0.049162618815898895,0.20430859923362732,-0.21209992468357086,-0.06846297532320023,-0.0749005526304245,0.2183694839477539,-0.10098224878311157,-0.050456222146749496,0.10812927782535553,0.11186310648918152,-0.0010774313705042005,0.07522997260093689,0.052456699311733246,-0.08846243470907211,-0.18752522766590118,-0.10029460489749908,-0.06613358110189438,0.09013595432043076,0.05213705822825432,0.08152507245540619,0.08709479123353958,-0.008990163914859295,0.1543097048997879,-0.05000900849699974,-0.10219521075487137,-0.1776740550994873,-0.0022116017062216997,0.21273870766162872,0.045123856514692307,-0.032816898077726364,0.017903374508023262,-0.2378498911857605,0.17438726127147675,0.27964508533477783,0.04038567095994949,-0.18130306899547577,-0.11216899752616882,0.22159945964813232,-0.03941844403743744,-0.014425168745219707,0.08379262685775757,-0.034271012991666794,0.0021626963280141354,-0.15632721781730652,0.03383550047874451,0.08784256875514984,-0.058941178023815155,-0.13682594895362854,-0.0964641347527504,-0.08951345831155777,0.05228576436638832,0.08277209103107452,-0.1387144774198532,-0.08865068852901459,0.1708175390958786,0.14835894107818604,-0.17952290177345276,-0.2665506601333618,-0.21891307830810547,-0.032406799495220184,-0.0783563181757927,-0.02537761628627777,-0.004474410321563482,-0.07520274817943573,-0.2056867778301239,-0.012333730235695839,0.051553502678871155,0.1136590987443924,-0.03487199544906616,-0.07035884261131287,0.09224384278059006,0.1967235952615738,-0.2875329554080963,-0.03121296688914299,-0.19380305707454681,0.09218480437994003,-0.08220100402832031,-0.1101827323436737,0.2575644850730896,-0.3277851343154907,0.10449647903442383,0.33784762024879456,-0.11671388894319534,0.029996473342180252,0.11572013795375824,0.23968036472797394,-0.07018882036209106,-0.23427239060401917,-0.24132326245307922,0.07800978422164917,0.1764601171016693,-0.0024808496236801147,-0.08282756060361862,-0.02581626921892166,-0.10484709590673447,0.06699839979410172,0.1654495894908905,-0.15103384852409363,0.06957050412893295,0.27828848361968994,-0.22431211173534393,0.08188681304454803,0.249837726354599,0.2776781916618347,0.04770474135875702,-0.3429909348487854,-0.11419807374477386,0.06179511919617653,0.13929495215415955,-0.27769866585731506,0.045303117483854294,0.05293237790465355,-0.18485529720783234,0.054217029362916946,0.18582743406295776,0.07709990441799164,0.07736796885728836,-0.13825079798698425,-0.23002612590789795,-0.21754074096679688,0.1780431717634201,0.20417572557926178,0.08518091589212418,-0.3011341392993927,-0.0767432227730751,-0.016121629625558853,-0.12579253315925598,0.10720641911029816,0.12848901748657227,-0.13853493332862854,0.22903114557266235,-0.04317536577582359,-0.01317259855568409,-0.21616248786449432,-0.1664615422487259,0.19645236432552338,0.11837363243103027,0.11607129126787186,-0.28157326579093933,0.009321017190814018,-0.2118467092514038,-0.01806432567536831,-0.020684169605374336,0.04548915848135948,-0.22115865349769592,0.20076726377010345,0.08406879007816315,-0.0023484104312956333,0.0666833221912384,0.055887479335069656,-0.3124947249889374,-0.21153587102890015,-0.14701591432094574,0.054735515266656876,-0.03908155858516693,-0.12678410112857819,-0.1231418028473854,-0.0338938869535923,-0.017728878185153008,-0.2697361707687378,0.2660379707813263,-0.04059525951743126,-0.17912694811820984,-0.10780177265405655,-0.06973408907651901,-0.0323931947350502,-0.03220872953534126,0.15532554686069489,0.1467280387878418,0.10511696338653564,0.0970902219414711,0.014395937323570251,0.1817110925912857,0.001984501490369439,-0.04146766662597656,0.14327120780944824,0.025636743754148483,-0.2145901322364807,0.05212635174393654,-0.005102334078401327,-0.08108280599117279,-0.11815173923969269,-0.14240199327468872,0.16596831381320953,0.20566299557685852,0.0505499504506588,-0.004208157770335674,0.004754950758069754,-0.06282342225313187,0.17611338198184967,0.11748988181352615,-0.11591293662786484,-0.10777302086353302,-0.02803974784910679,0.08138388395309448,-0.17522671818733215,0.11981476098299026,0.19416023790836334,-0.008881359361112118,-0.0034809266217052937,0.1281285285949707,0.23508574068546295,-0.030647974461317062,0.11116849631071091,-0.008596467785537243,0.10119449347257614,0.1802983283996582,0.025213588029146194,-0.007852362468838692,0.016244450584053993,-0.13602669537067413,-0.23041827976703644,-0.07693716883659363,0.1915780007839203,-0.041202254593372345,0.0023479473311454058,0.007314813788980246,0.26164746284484863,0.053885795176029205,0.023619916290044785,0.034499574452638626,0.1425524204969406,0.03811007738113403,0.23807378113269806,-0.1199951022863388,-0.16547729074954987,0.018633253872394562,-0.13850589096546173,-0.10642299056053162,-0.29189345240592957,0.13185134530067444,0.18032196164131165,0.023735444992780685,-0.06660591810941696,0.03788253664970398,0.1422838419675827,-0.003388995071873069,0.011929149739444256,-0.039400868117809296,0.08920536190271378,-0.048561982810497284,0.08076130598783493,0.015556788071990013,-0.01728866808116436,0.1541074514389038,0.09402354061603546,-0.020940609276294708,-0.17616337537765503,-0.017850834876298904,0.01797548681497574,-0.0827062726020813,-0.009453816339373589,-0.0576959028840065,-0.11114279180765152,-0.09152901917695999,-0.04213569685816765,0.05756397545337677,-0.11553812026977539,-0.019922083243727684,-0.13135486841201782,-0.15200358629226685,0.1299324780702591,-0.17017114162445068,-0.19655895233154297,0.011488473042845726,0.054067566990852356,0.10005052387714386,-0.18380627036094666,0.09472765028476715,0.22222080826759338,0.042279452085494995,0.057215671986341476,0.009119264781475067,-0.28038740158081055,0.16642430424690247,-0.13243691623210907,-0.09879950433969498,-0.23420220613479614,-0.19378410279750824,0.1427551805973053,0.04558606445789337,0.0848456546664238,-0.08801909536123276,0.051149655133485794,-0.07089836150407791,0.013243664987385273,-0.009220329113304615,0.1836315095424652,-0.14542469382286072,0.013654055073857307,0.11777984350919724,-0.12150581926107407,0.07675671577453613,-0.028697121888399124,-0.21243064105510712,-0.04816002771258354,-0.06965836882591248,0.1794086992740631,0.08704371750354767,-0.00538618816062808,-0.09193681925535202,0.12607064843177795,0.0327797532081604,-0.11635772138834,0.10346569120883942,0.03949026018381119,-0.20906825363636017,-0.0612606406211853,0.09231404960155487,0.15954241156578064,0.12288174033164978,-0.022674649953842163,0.05724034458398819,0.02149164490401745,0.12461861222982407,-0.11389731615781784,0.029549309983849525,0.331508606672287,-0.15040478110313416,-0.06675680726766586,-0.231778085231781,-0.21415601670742035,-0.004080049693584442,-0.051489442586898804,-0.04735308885574341,-0.18870598077774048,-0.18751001358032227,0.2540970742702484,-0.0839729905128479,-0.015014377422630787,-0.2311602085828781,0.2225109338760376,0.2861519753932953,-0.1787235289812088,-0.0202780794352293,0.349773645401001,-0.26166531443595886,0.06696169823408127,0.07432502508163452,0.05138618126511574,0.21372085809707642,0.2289692610502243,-0.1900070160627365,-0.059036482125520706,-0.12232553213834763,0.10886098444461823,0.17139841616153717,-0.06490027159452438,-0.23885370790958405,0.023293539881706238,0.26693904399871826,-0.27174872159957886,0.008648181334137917,0.16133880615234375,-0.055996835231781006,0.04554956033825874,0.3599531650543213,-0.2515590786933899,0.06386303901672363,-0.06512316316366196,-0.15141257643699646,-0.03377930447459221,-0.055687736719846725,0.2292560487985611,-0.13153305649757385,-0.25405094027519226,0.09653960168361664,-0.25870540738105774,0.24133263528347015,0.21627689898014069,-0.09437859058380127,0.08875292539596558,-0.08756569027900696,0.05851736292243004,-0.10584812611341476,-0.21582114696502686,-0.03238333389163017,-0.1674220860004425,0.10249775648117065,-0.08895650506019592,-0.032696180045604706,-0.18200744688510895,0.04347948357462883,-0.032851893454790115,0.060517970472574234,-0.1721946746110916,-0.11846865713596344,0.1567533165216446,-0.13458923995494843,-0.14646275341510773,-0.11608744412660599,0.06509293615818024,-0.11530012637376785,0.009476397186517715,0.1273314356803894,0.007035104092210531,0.0637117251753807,0.009721393696963787,-0.1459183394908905,-0.00007061563519528136,-0.14735811948776245,-0.13223616778850555,0.04604282230138779,0.05497647821903229,-0.09228546917438507,-0.2456158697605133,-0.19686490297317505,0.21442413330078125,-0.004658746998757124,0.09648203104734421,-0.14650052785873413,0.1452992707490921,-0.09732724726200104,-0.2340313047170639,0.09809944778680801,-0.14546531438827515,0.12877029180526733,0.07278710603713989,-0.26419132947921753,0.11291390657424927,-0.06967487186193466,-0.020919306203722954,0.15078924596309662,-0.1261032074689865,-0.08897269517183304,-0.23992398381233215,-0.08697076141834259,0.026053618639707565,-0.10552069544792175,-0.04340053349733353,-0.1355450600385666,-0.16434401273727417,-0.08379866182804108,0.15099340677261353,0.15198537707328796,0.1017075777053833,-0.08924663811922073,-0.1775696575641632,0.025166261941194534,0.15318021178245544,0.06876654177904129,-0.20917993783950806,0.020709140226244926,-0.051423102617263794,-0.21724356710910797,-0.2808002531528473,-0.11058509349822998,-0.0003500983293633908,0.04190578684210777,0.16125856339931488,0.0018302020616829395,0.008229190483689308,0.1370222568511963,0.32572701573371887,-0.25324520468711853,0.07457876205444336,0.17419621348381042,0.2212647646665573,-0.1993393450975418,-0.12353935092687607,0.2977520823478699,-0.4021351635456085,-0.05936719849705696,0.08482318371534348,0.2664881646633148,0.12053731828927994,-0.12749144434928894,0.10193639248609543,0.2893199920654297,-0.1567978411912918,0.025279095396399498,-0.06880107522010803,0.06760437786579132,-0.214784175157547,0.07160937041044235,0.15132418274879456,-0.4391695559024811,0.044484399259090424,0.19210626184940338,-0.2906327247619629,0.035429708659648895,-0.021258091554045677,0.26011916995048523,-0.18726308643817902,-0.04217821732163429,-0.18558497726917267,-0.02976943738758564,-0.04743722081184387,-0.1664552092552185,-0.10392088443040848,-0.048383280634880066,-0.4656471908092499,0.1038031354546547,-0.14669986069202423,-0.34209880232810974,-0.06408649682998657,0.14441238343715668,0.28661036491394043,0.05538169667124748,0.42327016592025757,-0.3574046194553375,0.40063536167144775,0.10454787313938141,-0.0834442749619484,0.023534104228019714,0.1468287706375122,-0.09978529065847397,-0.010439596138894558,-0.04177027940750122,-0.09036437422037125,0.24777378141880035,0.16569092869758606,-0.0005835469346493483,-0.31754690408706665,-0.2539164125919342,-0.07953233271837234,0.06471255421638489,0.03917691111564636,0.08044233918190002,0.03184477239847183,0.15049131214618683,0.03129657730460167,-0.18509845435619354,-0.15465503931045532,-0.08012927323579788,0.1594540774822235,0.07066746801137924,-0.0039514051750302315,0.08288595080375671,-0.03500589728355408,-0.0067466916516423225,-0.004459593445062637,0.1755504608154297,0.004084729123860598,-0.09978076070547104,-0.12565624713897705,0.06062915548682213,-0.019442252814769745,-0.010311034508049488,-0.10768154263496399,0.16665968298912048,0.1377471387386322,-0.1337612122297287,-0.16424500942230225,0.22335198521614075,0.1677715927362442,0.03880473971366882,-0.14299766719341278,0.15882021188735962,0.3799578845500946,-0.04888423532247543,0.04362614452838898,-0.07937143743038177,-0.05320487543940544,0.04891136661171913,-0.005296065006405115,-0.08666420727968216,-0.05995696038007736,0.0823545902967453,-0.21473723649978638,0.09429199993610382,0.25030747056007385,-0.072478748857975,-0.02422293834388256,0.18192702531814575,0.09938640147447586,-0.1360064446926117,-0.14801661670207977,-0.06296756118535995,-0.0734793096780777,-0.07303684949874878,0.08616874366998672,0.007509485352784395,0.10498979687690735,-0.11961241066455841,-0.017268596217036247,0.011544671840965748,-0.13084010779857635,0.04937425255775452,0.25741875171661377,0.059086237102746964,-0.12080880999565125,0.11862245947122574,0.17373359203338623,-0.09479266405105591,-0.14959506690502167,0.05795365199446678,0.17518393695354462,-0.04081903398036957,0.01415056362748146,-0.04350399971008301,0.0903129056096077,-0.2724871039390564,-0.13417014479637146,-0.04511480778455734,0.18715135753154755,0.10394798219203949,0.03299829736351967,0.04137222468852997,-0.04963595047593117,0.09129463136196136,0.050165582448244095,0.08441438525915146,-0.1756286472082138,0.1596394032239914,0.12308492511510849,-0.24202203750610352,-0.04515727981925011,-0.10448240488767624,-0.20418794453144073,0.08883998543024063,0.014091107994318008,-0.03681258112192154,0.024995887652039528,-0.1314210742712021,0.02638654038310051,-0.11259306222200394,0.1742320954799652,-0.21461212635040283,0.02516595646739006,0.1720820516347885,-0.06705905497074127,-0.0020707251969724894,0.3330073654651642,-0.2710042893886566,-0.03222641721367836,0.1508053094148636,-0.04092901572585106,0.042666397988796234,0.12392093241214752,-0.2499135285615921,-0.13851702213287354,-0.03555358201265335,0.23561914265155792,0.08094922453165054,0.09269966930150986,-0.07519372552633286,0.24410495162010193,0.22654245793819427,-0.034521378576755524,0.07862340658903122,-0.015976395457983017,-0.07539884001016617,0.06497546285390854,0.19455191493034363,-0.16637004911899567,0.12871971726417542,-0.03272930160164833,0.035471539944410324,-0.003410140285268426,0.05943356826901436,0.040209878236055374,-0.03510677441954613,-0.008435748517513275,0.12547971308231354,-0.030334681272506714,0.06819875538349152,0.16554518043994904,0.1638483852148056,-0.06171858683228493,0.1966724395751953,0.13047339022159576,0.08205743134021759,-0.02491002343595028,-0.16165012121200562,0.06380632519721985,0.22730162739753723,0.02383900247514248,-0.014068452641367912,-0.281270295381546,-0.021078811958432198,-0.08264351636171341,0.16853176057338715,-0.13613326847553253,-0.13365380465984344,0.09340565651655197,0.0731377974152565,-0.08261623978614807,0.20378617942333221,0.1820104718208313,-0.07052028179168701,-0.10722547769546509,0.0853295773267746,-0.0738045945763588,-0.05619751289486885,-0.11443646997213364,-0.14368711411952972,0.2132359743118286,-0.13514970242977142,-0.1294480711221695,0.232796311378479,0.1500830203294754,-0.10797163099050522,0.012646299786865711,0.04724133387207985,0.04049712419509888,0.011398548260331154,-0.20077238976955414,-0.08546698838472366,0.09134086221456528,-0.03158453479409218,0.10454261302947998,0.1215062290430069,-0.1990172266960144,-0.04169342294335365,0.2633199393749237,0.022811103612184525,0.06942158937454224,0.008620603941380978,0.1602465808391571,-0.15529297292232513,-0.1851075440645218,-0.020339831709861755,-0.07940241694450378,0.19758690893650055,0.03956910967826843,-0.03486703708767891,-0.23561327159404755,0.002229539444670081,0.1408461630344391,0.08217424154281616,-0.22877685725688934,0.015456278808414936,0.120697021484375,-0.10081418603658676,-0.03386286646127701,0.07128700613975525,0.1890145093202591,-0.13853508234024048,-0.23589006066322327,-0.013800437562167645,0.19471627473831177,-0.14189240336418152,-0.16644126176834106,0.23277705907821655,-0.16206438839435577,-0.261471152305603,0.009588870219886303,-0.03145844489336014,0.07992849498987198,0.154921293258667,-0.31933680176734924,0.07523470371961594,0.19245445728302002,0.05744631215929985,-0.2388620227575302,0.04178128391504288,0.161076620221138,-0.1279986947774887,-0.14994558691978455,-0.11432161182165146,-0.023571258410811424,0.10442174226045609,0.25928130745887756,0.034099090844392776,0.048754576593637466,0.047835320234298706,0.005276545416563749,-0.022759247571229935,-0.036078453063964844,-0.05065532401204109,-0.059199586510658264,-0.03620443865656853,-0.14024430513381958,0.09204714745283127,-0.12640856206417084,0.01443579699844122,-0.08343298733234406,0.028010861948132515,-0.3191288113594055,-0.10839856415987015,0.20913587510585785,-0.19861672818660736,0.024071138352155685,-0.05508878827095032,0.1507047563791275,-0.1063106507062912,-0.19134670495986938,-0.11615698784589767,-0.06962589174509048,0.06026839837431908,-0.1311647742986679,0.010542694479227066,0.16132234036922455,0.018109142780303955,0.10496436804533005,0.15948991477489471,0.17947058379650116,-0.012021210044622421,-0.04976833239197731,0.027957942336797714,-0.027297357097268105,0.11416799575090408,0.009945557452738285,0.1390303671360016,0.1023167073726654,-0.13257049024105072,-0.10112448781728745,-0.03126777708530426,0.21270732581615448,-0.03626614436507225,-0.007794337347149849,0.0819825604557991,0.07390937954187393,0.029470078647136688,-0.005038055125623941,0.76637202501297,0.10286861658096313,0.7690334916114807,-0.9422838091850281,-0.5573091506958008,0.16469596326351166,0.19749665260314941,0.010327818803489208,0.5468303561210632,0.757628321647644,-0.9073296189308167,0.46536627411842346,-0.08753165602684021,-0.8469992876052856,-0.20774635672569275,-0.2615314722061157,-0.0666934922337532,-0.4300498366355896,0.4489821791648865,-0.045499756932258606,0.11981124430894852,0.3488071858882904,0.0037918384186923504,-0.13923059403896332,-0.26972806453704834,0.20393188297748566,-0.1708531528711319,0.007785899098962545,0.3899894654750824,-0.06252146512269974,0.0640188530087471,-0.09918638318777084,-0.08933889120817184,-0.033311985433101654,0.030670685693621635,-0.23832941055297852,0.03931710124015808,-0.0848371684551239,0.11152411252260208,-0.21757973730564117,-0.0177239328622818,-0.021649295464158058,-0.10581260919570923,0.12949790060520172,-0.15558157861232758,0.15139193832874298,0.137957364320755,0.16760919988155365,-0.038261838257312775,0.34612053632736206,-0.564302921295166,-0.1642584353685379,-0.12789398431777954,-0.3783595561981201,-0.1688867211341858,0.11174444854259491,0.284023255109787,-0.2646729052066803,-0.01746642030775547,-0.17339259386062622,-0.05257897078990936,0.11742617189884186,0.06229378283023834,0.17352917790412903,-0.35207095742225647,-0.0847267135977745,0.02519002929329872,0.20642489194869995,0.29141765832901,0.3293309509754181,0.2692435383796692,0.011428882367908955,-0.18110935389995575,-0.15374477207660675,0.1079229786992073,-0.2433767169713974,0.12751618027687073,0.06862931698560715,0.06650210171937943,-0.2478283792734146,-0.13006211817264557,-0.37399962544441223,0.06576411426067352,0.061368077993392944,-0.01939343847334385,0.01527053490281105,-0.0056134476326406,-0.04023953527212143,0.3812413811683655,0.2685075104236603,0.26618728041648865,0.055249810218811035,-0.3483298718929291,-0.2883383333683014,-0.3534497618675232,-0.18064719438552856,-0.18698592483997345,-0.009004184044897556,0.1589731127023697,0.1418938934803009,-0.10078951716423035,0.20620298385620117,0.03689856827259064,0.05416232347488403,0.02699814736843109,0.11436975002288818,-0.07664531469345093,0.14029638469219208,0.03653198108077049,0.0670456811785698,-0.19178618490695953,0.10729756951332092,-0.09367991983890533,-0.15383732318878174,-0.1359441727399826,0.11118657141923904,-0.01754937693476677,-0.1511860489845276,0.13179358839988708,0.06940674036741257,-0.2259795367717743,0.046675119549036026,0.010388257913291454,0.06320790946483612,0.11023810505867004,0.007055873982608318,0.04999777674674988,-0.1682198941707611,0.0685926005244255,0.3710699677467346,-0.2555830180644989,0.20250661671161652,0.13785968720912933,-0.26236477494239807,-0.25694385170936584,0.3581457734107971,-0.05329092592000961,0.0654180645942688,-0.010227286256849766,0.207926943898201,-0.1337960660457611,0.0742998719215393,0.1672171652317047,-0.10546277463436127,-0.13233132660388947,0.2657330632209778,-0.2413759082555771,-0.09450116753578186,0.15243478119373322,-0.051837008446455,-0.2647741138935089,-0.13789068162441254,-0.09012793004512787,-0.012982536107301712,-0.12929639220237732,-0.1294865906238556,0.25720036029815674,0.32640087604522705,0.033341050148010254,0.007734399288892746,-0.17516149580478668,0.030542589724063873,0.12211857736110687,0.03015081211924553,0.013883328065276146,0.15320096909999847,0.0038551422767341137,-0.007689144462347031,-0.24999412894248962,-0.18639971315860748,0.16554206609725952,-0.35653892159461975,0.11504117399454117,-0.2291838377714157,0.201745867729187,-0.18267564475536346,-0.030963469296693802,0.319813072681427,-0.3463330566883087,-0.1652604341506958,-0.12952019274234772,-0.09501639753580093,-0.16394412517547607,-0.042475536465644836,0.18480725586414337,0.06711522489786148,-0.10438847541809082,0.09838727861642838,-0.14380115270614624,0.19011786580085754,0.2262549251317978,-0.026310179382562637,0.1591031551361084,0.15111654996871948,-0.17825384438037872,-0.019532857462763786,-0.1116134449839592,-0.28560349345207214,0.014353642240166664,0.13186658918857574,-0.3950502276420593,-0.006998071912676096,0.2564563453197479,0.33811429142951965,-0.17066411674022675,0.23880496621131897,0.041192371398210526,-0.05045228824019432,-0.019990677013993263,-0.11636779457330704,0.0000645677573629655,0.30520692467689514,-0.19046984612941742,0.02015744335949421,0.035505957901477814,-0.08678630739450455,0.15815410017967224,0.07291246950626373,-0.12188830971717834,-0.19623705744743347,-0.230774387717247,0.1885373741388321,-0.17657405138015747,-0.21563147008419037,-0.1537323147058487,0.03859986737370491,-0.06655240058898926,0.22048062086105347,0.08866546303033829,-0.050843194127082825,-0.29301387071609497,-0.05716443806886673,0.04646185785531998,0.3562554717063904,0.14274148643016815,-0.11321650445461273,-0.20850546658039093,-0.10503888875246048,-0.1851447969675064,-0.053645744919776917,0.3655664324760437,-0.04250524193048477,-0.11231657862663269,0.11227777600288391,-0.2110663503408432,-0.21684986352920532,0.17555050551891327,0.020455386489629745,-0.14770054817199707,-0.09818414598703384,-0.26156696677207947,0.09576619416475296,0.19533216953277588,0.15259087085723877,0.06340714544057846,0.14933738112449646,0.12522242963314056,0.2488473355770111,-0.30707210302352905,-0.3613729774951935,-0.327646404504776,-0.26987165212631226,0.08111155778169632,-0.05134981498122215,-0.35057640075683594,-0.19366656243801117,-0.39594390988349915,0.03495604917407036,0.17159992456436157,0.0344865508377552,0.4192487895488739,0.4771288335323334,-0.1638832688331604,0.017597857862710953,0.0945620983839035,-0.04109392315149307,0.053698718547821045,0.009701907634735107,-0.07127412408590317,0.027156680822372437,-0.14521470665931702,0.07902318984270096,0.04449107125401497,-0.02960556000471115,0.024190133437514305,-0.1524587869644165,-0.009438523091375828,-0.03311925381422043,0.01989000290632248,-0.27359917759895325,0.3971357047557831,-0.010370684787631035,0.1323813945055008,-0.19015808403491974,-0.12981228530406952,0.2571946382522583,-0.9224234223365784,0.08589044958353043,0.08967870473861694,0.20785026252269745,0.02288530208170414,0.06067467853426933,-0.47020474076271057,0.04220709204673767,-0.06448353826999664,0.17571978271007538,0.16561317443847656,0.04627861827611923,0.06072532385587692,0.20643126964569092,0.4460355043411255,-0.6597885489463806,0.03350290656089783,0.09952888637781143,-0.2122657597064972,0.18613079190254211,-0.0037413681857287884,0.22801195085048676,0.15925025939941406,0.3348183035850525,-0.48389458656311035,0.09303425252437592,0.015858663246035576,-0.2505650818347931,0.06424172967672348,0.21141214668750763,-0.20705246925354004,0.037383176386356354,0.16139203310012817,-0.5896432995796204,0.20151537656784058,-0.08168622851371765,0.23100823163986206,-0.0010058027692139149,0.31821146607398987,0.10713060945272446,-0.1796831339597702,0.0228902455419302,-0.015628911554813385,0.12020714581012726,0.02882896363735199,-0.010564020834863186,-0.04925651103258133,-0.0762399211525917,0.11244779080152512,-0.1046144887804985,0.02853364869952202,-0.20723269879817963,0.06418047845363617,0.19307196140289307,0.12328436225652695,0.002638885285705328,-0.04165755212306976,0.06321772187948227,-0.12354493141174316,0.10943415015935898,-0.05039690434932709,-0.15549181401729584,-0.07322496175765991,-0.1297023594379425,-0.0038345507346093655,0.13665670156478882,0.04043102264404297,0.02680899016559124,0.05367729440331459,-0.04186217486858368,0.16154977679252625,-0.05662694573402405,0.04696451500058174,-0.19658954441547394,-0.25077345967292786,-0.032054826617240906,-0.14988914132118225,-0.07517985999584198,0.1415063887834549,-0.1466018408536911,0.12873153388500214,-0.19091938436031342,0.2011808156967163,0.07256380468606949,-0.03403139486908913,-0.12272408604621887,-0.1977778822183609,-0.06654922664165497,-0.14642433822155,-0.08404755592346191,0.0746794119477272,0.10346407443284988,0.21140514314174652,0.12200109660625458,-0.12706318497657776,0.02673591859638691,0.14635193347930908,0.018905900418758392,0.0879979133605957,-0.23686383664608002,-0.053628332912921906,-0.14189192652702332,0.00017612082592677325,-0.11081507802009583,0.030405543744564056,0.1419186145067215,0.022953156381845474,-0.05989092215895653,-0.16809417307376862,-0.1561010181903839,-0.012632852420210838,-0.03139065206050873,0.13673874735832214,-0.09631972759962082,-0.12914960086345673,0.16437456011772156,-0.16495253145694733,-0.09811075776815414,0.0717066302895546,0.23814772069454193,0.04536481201648712,-0.1220395416021347,0.1444443166255951,0.14330406486988068,-0.022000979632139206,0.12421105057001114,0.1937357783317566,0.13782383501529694,0.0035544869024306536,-0.05240437760949135,0.0025687713641673326,0.1731412559747696,0.04464302584528923,-0.12803998589515686,0.0295940563082695,0.09477554261684418,-0.02935865707695484,-0.5021316409111023,0.021499546244740486,-0.1397203952074051,0.08942130208015442,-0.07526088505983353,0.0942188948392868,0.37894880771636963,0.04252578318119049,-0.0656750276684761,-0.08322610706090927,0.10958994925022125,0.009205400943756104,-0.20816735923290253,0.1435323804616928,0.07929351925849915,-0.14296500384807587,0.02181120403110981,0.07607220858335495,-0.008673069067299366,0.17373159527778625,0.17786580324172974,0.04685498774051666,-0.16253915429115295,-0.1797250211238861,-0.04683014377951622,0.020380519330501556,-0.31863638758659363,0.0673959031701088,-0.03888116776943207,-0.0317196398973465,0.2639469504356384,-0.007730362471193075,0.08034104108810425,-0.046704139560461044,-0.020508766174316406,0.05927808955311775,0.021947147324681282,0.047014977782964706,-0.19479583203792572,-0.09042806923389435,-0.02256300114095211,0.1691148430109024,0.2255067080259323,-0.16520684957504272,0.24846874177455902,0.3038824200630188,-0.08349957317113876,-0.03990142047405243,0.13524411618709564,0.25298401713371277,0.030715811997652054,0.08962402492761612,-0.07661061733961105,-0.010607297532260418,-0.002360057784244418,-0.024041524156928062,0.019493920728564262,0.19582796096801758,-0.00438685342669487,0.10929964482784271,-0.0379364974796772,-0.053777359426021576,0.04823343828320503,-0.01968698389828205,0.0036391960456967354,0.2129860371351242,-0.006549477111548185,-0.17383313179016113,0.02269035391509533,0.05914659798145294,-0.10042428970336914,0.04578366503119469,-0.009384524077177048,0.00017146093887276947,0.18387249112129211,0.16532297432422638,0.08311448991298676,-0.08618701249361038,0.04891183599829674,-0.25495654344558716,0.044098176062107086,-0.12771576642990112,-0.08158179372549057,-0.3183571994304657,-0.0592757984995842,-0.14661282300949097,0.11289364099502563,0.0282946415245533,-0.2798372507095337,-0.03151281923055649,-0.03121497482061386,-0.02598584070801735,-0.2441883087158203,0.13021354377269745,0.27131739258766174,-0.12856078147888184,0.194571852684021,-0.005326180253177881,-0.06295984983444214,-0.011243035085499287,0.021739980205893517,-0.22796466946601868,-0.08115261793136597,-0.1388094127178192,0.13607248663902283,-0.017949029803276062,-0.05252804979681969,-0.18710504472255707,-0.04895823076367378,-0.20300211012363434,-0.15249848365783691,-0.09506173431873322,0.05527566373348236,0.18695855140686035,-0.08490388095378876,-0.1470436304807663,0.16471970081329346,0.17322322726249695,0.11712442338466644,0.09219592064619064,-0.013514022342860699,0.09887164831161499,0.11689554154872894,-0.016664601862430573,-0.12451960891485214,0.0904860869050026,-0.067938432097435,-0.15018245577812195,-0.0013170312158763409,0.2947908639907837,0.045817017555236816,-0.01581999473273754,-0.07511436194181442,-0.0033878835383802652,0.1813892275094986,0.017804846167564392,-0.17999179661273956,0.01794256456196308,-0.05667538195848465,0.004079109989106655,-0.016194375231862068,0.01809825375676155,0.25928255915641785,-0.09250180423259735,0.4242786169052124,-0.4286293685436249,0.045642655342817307,-0.21520951390266418,0.15154846012592316,-0.025985242798924446,-0.8572771549224854,1.0307121276855469,-0.2114008516073227,-0.1709819883108139,-0.013503020629286766,0.19722644984722137,0.6854919195175171,-0.5063003301620483,0.17112883925437927,0.29361042380332947,-0.07641603797674179,-0.10405958443880081,0.0026402552612125874,0.19110800325870514,-0.04023700952529907,-0.4446564316749573,0.5276850461959839,-0.08712754398584366,-0.28839948773384094,0.4257677495479584,0.05112777277827263,-0.034864284098148346,0.041525788605213165,-0.13939990103244781,-0.250125527381897,0.45497971773147583,-0.04145034775137901,-0.1458379626274109,0.09157998859882355,-0.018277447670698166,0.2115158885717392,0.08856223523616791,0.10909251123666763,0.23873622715473175,0.19595302641391754,-0.2300705909729004,-0.3757030665874481,0.24006015062332153,0.00013571402814704925,-0.7310614585876465,0.3030049502849579,0.06037251651287079,0.020457599312067032,0.313976913690567,0.09309762716293335,0.07920293509960175,-0.19351720809936523,-0.03627488762140274,-0.04119133949279785,-0.0149671770632267,0.3319152891635895,0.10522608458995819,-0.1232714056968689,-0.04020630195736885,-0.12354391068220139,0.14740385115146637,-0.23707076907157898,-0.13213223218917847,0.14469614624977112,0.09139907360076904,0.09099479019641876,-0.2313159555196762,0.12612402439117432,-0.06028815358877182,-0.15001775324344635,0.0726623386144638,0.08730598539113998,-0.12273566424846649,0.11002679914236069,0.0925384908914566,-0.15573042631149292,0.016031449660658836,0.0761510506272316,-0.1414320319890976,-0.27211520075798035,-0.15699321031570435,0.18505850434303284,0.05098792165517807,0.057351283729076385,0.0653916448354721,0.12281156331300735,0.10220940411090851,-0.27171415090560913,-0.07660890370607376,-0.07469514012336731,-0.2412409484386444,-0.3310554623603821,-0.07850159704685211,0.007886446081101894,0.08677808940410614,-0.15369704365730286,-0.0336117148399353,0.07294978201389313,-0.029014060273766518,-0.02141619846224785,-0.03494991734623909,-0.18755871057510376,-0.09429433196783066,-0.24352385103702545,0.03617825731635094,0.10772039741277695,0.06434617191553116,-0.20930345356464386,0.16180948913097382,0.15556614100933075,-0.12771901488304138,0.04212697222828865,-0.046490658074617386,-0.06728782504796982,0.03903602063655853,0.0627249926328659,-0.10976757109165192,-0.07960029691457748,-0.05673488229513168,-0.025005869567394257,0.018065208569169044,-0.1181836724281311,-0.006186565849930048,0.11250114440917969,-0.1256938874721527,0.05344679579138756,0.05547642707824707,0.06029261648654938,0.07931938022375107,-0.08845597505569458,0.009447216987609863,0.02742536924779415,-0.06392128020524979,-0.16261622309684753,0.031212735921144485,0.18062640726566315,-0.07422184944152832,-0.06050023064017296,-0.23645561933517456,0.022046048194169998,0.14329123497009277,0.1425132006406784,0.20879951119422913,0.08413167297840118,-0.08608439564704895,0.055094558745622635,0.2665165066719055,-0.09610350430011749,-0.14218232035636902,-0.08152318000793457,0.03795492649078369,0.17004981637001038,-0.006534968502819538,-0.272318035364151,-0.14808040857315063,-0.054407719522714615,-0.07607543468475342,-0.04681379348039627,-0.01615668274462223,0.05735614150762558,-0.07754461467266083,0.05994249880313873,-0.18536634743213654,0.21108128130435944,0.12632985413074493,0.1025325208902359,0.20362333953380585,0.23055121302604675,0.17921122908592224,-0.01240525208413601,0.04627234861254692,-0.2693909704685211,0.03961360827088356,0.09000037610530853,-0.21799956262111664,0.005732780788093805,-0.12417769432067871,0.02836482971906662,-0.1265934556722641,-0.19300925731658936,-0.2491154819726944,0.0792236253619194,0.052579451352357864,-0.1861775666475296,-0.2459363043308258,0.06469418853521347,-0.1671997308731079,0.005152745172381401,0.0507354810833931,-0.06454473733901978,-0.3107810616493225,0.07082474231719971,0.4339645206928253,0.14718836545944214,0.09643291682004929,-0.16111615300178528,0.06180216744542122,-0.009039552882313728,-0.1525307148694992,0.15030299127101898,0.12098819017410278,-0.0912766307592392,-0.006012249272316694,0.17501387000083923,0.3861381709575653,-0.22096112370491028,0.10020686686038971,0.18999804556369781,0.17158477008342743,0.026554634794592857,-0.24438749253749847,-0.05153486877679825,-0.14264407753944397,-0.2851739227771759,0.2587758004665375,-0.05810541659593582,-0.20218941569328308,0.11053776741027832,0.1515953242778778,-0.25715577602386475,0.21463936567306519,0.04262348264455795,-0.2437623143196106,-0.12679706513881683,-0.07528649270534515,0.01020313985645771,0.10633261501789093,0.24324478209018707,0.2514110207557678,-0.021857887506484985,0.03640148416161537,-0.007890680804848671,0.24307279288768768,0.16392748057842255,-0.061409980058670044,-0.253338098526001,-0.2716204524040222,0.0607709176838398,-0.08716443926095963,-0.03494518622756004,0.22316445410251617,0.2481447160243988,-0.11692167818546295,-0.1551300436258316,0.20329895615577698,0.10616230219602585,-0.1527625173330307,-0.1517295092344284,0.0012207628460600972,0.015982773154973984,-0.18738435208797455,-0.1318260282278061,0.16692553460597992,-0.06917031109333038,-0.02618933469057083,0.02209828421473503,0.12174155563116074,0.1787467747926712,0.0295569971203804,0.12998901307582855,-0.02381093055009842,-0.11766844242811203,-0.021505773067474365,0.05015789344906807,-0.137532040476799,-0.12281224876642227,